{"learner":{"attributes":{"best_iteration":"29","best_score":"0.05887226897029751"},"feature_names":[],"feature_types":[],"gradient_booster":{"model":{"gbtree_model_param":{"num_parallel_tree":"1","num_trees":"480"},"iteration_indptr":[0,16,32,48,64,80,96,112,128,144,160,176,192,208,224,240,256,272,288,304,320,336,352,368,384,400,416,432,448,464,480],"tree_info":[0,1,2,3,4,5,6,7,8,9,10,11,12,13,14,15,0,1,2,3,4,5,6,7,8,9,10,11,12,13,14,15,0,1,2,3,4,5,6,7,8,9,10,11,12,13,14,15,0,1,2,3,4,5,6,7,8,9,10,11,12,13,14,15,0,1,2,3,4,5,6,7,8,9,10,11,12,13,14,15,0,1,2,3,4,5,6,7,8,9,10,11,12,13,14,15,0,1,2,3,4,5,6,7,8,9,10,11,12,13,14,15,0,1,2,3,4,5,6,7,8,9,10,11,12,13,14,15,0,1,2,3,4,5,6,7,8,9,10,11,12,13,14,15,0,1,2,3,4,5,6,7,8,9,10,11,12,13,14,15,0,1,2,3,4,5,6,7,8,9,10,11,12,13,14,15,0,1,2,3,4,5,6,7,8,9,10,11,12,13,14,15,0,1,2,3,4,5,6,7,8,9,10,11,12,13,14,15,0,1,2,3,4,5,6,7,8,9,10,11,12,13,14,15,0,1,2,3,4,5,6,7,8,9,10,11,12,13,14,15,0,1,2,3,4,5,6,7,8,9,10,11,12,13,14,15,0,1,2,3,4,5,6,7,8,9,10,11,12,13,14,15,0,1,2,3,4,5,6,7,8,9,10,11,12,13,14,15,0,1,2,3,4,5,6,7,8,9,10,11,12,13,14,15,0,1,2,3,4,5,6,7,8,9,10,11,12,13,14,15,0,1,2,3,4,5,6,7,8,9,10,11,12,13,14,15,0,1,2,3,4,5,6,7,8,9,10,11,12,13,14,15,0,1,2,3,4,5,6,7,8,9,10,11,12,13,14,15,0,1,2,3,4,5,6,7,8,9,10,11,12,13,14,15,0,1,2,3,4,5,6,7,8,9,10,11,12,13,14,15,0,1,2,3,4,5,6,7,8,9,10,11,12,13,14,15,0,1,2,3,4,5,6,7,8,9,10,11,12,13,14,15,0,1,2,3,4,5,6,7,8,9,10,11,12,13,14,15,0,1,2,3,4,5,6,7,8,9,10,11,12,13,14,15,0,1,2,3,4,5,6,7,8,9,10,11,12,13,14,15],"trees":[{"base_weights":[6.554818E0,4.792369E0,7.5782986E0,3.301578E0,7.3392816E0,7.8172855E0,4.5973697E0,7.089306E0,1.7016053E0,7.9062643E0,5.997112E0,7.9354944E0,6.7713585E0,-4.496528E-1,2.3984196E0,7.1523204E0,6.6506237E-1,3.7140532E0,3.2124004E-1,7.9388075E0,7.832482E-1,7.9273295E0,9.852627E-1,-5.2995265E-1,7.9453964E0,7.9690833E0,-2.9422483E-1,-5.006583E-1,5.9124794E0,6.8419824E0,7.961171E0,2.379177E0,-1.5934342E-1,9.1107637E-1,7.9322014E0,7.516115E-2,7.9154997E0,7.9423056E0,-4.4112507E-1,6.6832404E0,5.7161176E-1,7.933716E0,-6.360986E-3,2.872505E-2,7.6741285E0,2.0988594E-1,-1.597862E-1,7.9478846E0,1.6262773E0,6.5993867E0,7.971439E0,-1.5998432E-1,2.386807E0,-5.1097155E-1,6.9275503E0,-2.03966E-1,7.79981E0,2.0530534E0,-1.4807917E-1,2.389324E0,4.9491933E-1,2.3745668E0,-1.3302644E-1,3.6707333E-1,2.3949049E0,4.9219602E-1,-1.2181287E-1,2.3785863E0,4.4221824E-1,2.3845477E0,2.2664208E0,4.661871E-1,-1.5666613E-1,2.2147167E0,1.2523038E0,1.6600722E-1,2.4399263E-1,1.8439962E0,2.3853147E0,3.4413174E-2,-3.567889E-2,2.3647597E0,-7.672775E-2,2.3678555E0,1.5470496E0,2.3846257E0,1.5543085E0,-1.5756574E-1,2.3539183E0,2.3614812E0,6.20772E-2,2.3914654E0,3.2805756E-1,1.4301546E0,-1.5683936E-1,2.7799228E-2,2.2953107E0,1.0053269E0,-1.418609E-1,2.3674724E0,-9.659443E-2],"categories":[],"categories_nodes":[],"categories_segments":[],"categories_sizes":[],"default_left":[0,0,0,0,0,0,0,0,0,0,0,0,0,0,0,0,0,0,0,0,0,0,0,0,0,0,0,0,0,0,0,0,0,0,0,0,0,0,0,0,0,0,0,0,0,0,0,0,0,0,0,0,0,0,0,0,0,0,0,0,0,0,0,0,0,0,0,0,0,0,0,0,0,0,0,0,0,0,0,0,0,0,0,0,0,0,0,0,0,0,0,0,0,0,0,0,0,0,0,0,0],"id":0,"left_children":[1,3,5,7,9,11,13,15,17,19,21,23,25,27,-1,29,31,33,35,37,39,41,43,45,47,49,51,53,55,57,59,-1,-1,61,63,65,67,69,71,73,75,77,79,81,83,-1,-1,85,87,89,91,-1,-1,93,95,97,99,-1,-1,-1,-1,-1,-1,-1,-1,-1,-1,-1,-1,-1,-1,-1,-1,-1,-1,-1,-1,-1,-1,-1,-1,-1,-1,-1,-1,-1,-1,-1,-1,-1,-1,-1,-1,-1,-1,-1,-1,-1,-1,-1,-1],"loss_changes":[2.19586E6,1.698059E6,5.48604E5,1.709616E6,1.25608E5,8.81E4,9.801396E5,3.39095E4,5.5094256E5,2.6902E4,4.7442912E5,5.37E4,6.127195E5,7.466081E3,0E0,2.07705E4,7.086285E3,9.540259E5,2.1984464E5,3.3905E3,6.567759E2,1.794E3,8.725323E4,2.830841E0,1.0044E4,1.4725E2,2.0703988E4,1.7514971E3,2.1140083E3,6.7575E2,4.575E2,0E0,0E0,4.5992203E5,1.0971625E4,8.58411E4,3.0040625E2,2.175E2,8.765853E0,1.1543579E0,1.8081055E0,1.047E3,4.1537446E-1,2.6661701E4,8.9871094E2,0E0,0E0,1.5E3,3.390849E3,9.0998535E2,3.9E1,0E0,0E0,1.424811E3,1.5606116E2,4.3766693E1,1.0678223E2,0E0,0E0,0E0,0E0,0E0,0E0,0E0,0E0,0E0,0E0,0E0,0E0,0E0,0E0,0E0,0E0,0E0,0E0,0E0,0E0,0E0,0E0,0E0,0E0,0E0,0E0,0E0,0E0,0E0,0E0,0E0,0E0,0E0,0E0,0E0,0E0,0E0,0E0,0E0,0E0,0E0,0E0,0E0,0E0],"parents":[2147483647,0,0,1,1,2,2,3,3,4,4,5,5,6,6,7,7,8,8,9,9,10,10,11,11,12,12,13,13,15,15,16,16,17,17,18,18,19,19,20,20,21,21,22,22,23,23,24,24,25,25,26,26,27,27,28,28,29,29,30,30,33,33,34,34,35,35,36,36,37,37,38,38,39,39,40,40,41,41,42,42,43,43,44,44,47,47,48,48,49,49,50,50,53,53,54,54,55,55,56,56],"right_children":[2,4,6,8,10,12,14,16,18,20,22,24,26,28,-1,30,32,34,36,38,40,42,44,46,48,50,52,54,56,58,60,-1,-1,62,64,66,68,70,72,74,76,78,80,82,84,-1,-1,86,88,90,92,-1,-1,94,96,98,100,-1,-1,-1,-1,-1,-1,-1,-1,-1,-1,-1,-1,-1,-1,-1,-1,-1,-1,-1,-1,-1,-1,-1,-1,-1,-1,-1,-1,-1,-1,-1,-1,-1,-1,-1,-1,-1,-1,-1,-1,-1,-1,-1,-1],"split_conditions":[2.2E1,4.43E2,2.6883E4,3.7388958E-2,2.22E2,8.08E3,4.43E2,6.11E7,1.825E3,3.3333334E5,2.3310024E3,6E0,1E0,1.5E1,2.3984196E0,3.4E1,1E0,2.53E2,8.1019025E5,5E0,2.4E1,1E0,4.7393364E3,3.9E1,1.89E2,0E0,4.359E4,7.41E2,2.92E4,2.75E7,6.4E1,2.379177E0,-1.5934342E-1,3.2E1,1E0,8.192E3,5.656854E0,1.79E2,2.97E2,5.278E3,1E6,9.38E2,3.6845E4,2.56E2,4.01E2,2.0988594E-1,-1.597862E-1,8.795103E7,1.55E1,6.73E2,3.546E3,-1.5998432E-1,2.386807E0,9.150522E1,2.92E4,1.7764644E5,4.453872E1,2.0530534E0,-1.4807917E-1,2.389324E0,4.9491933E-1,2.3745668E0,-1.3302644E-1,3.6707333E-1,2.3949049E0,4.9219602E-1,-1.2181287E-1,2.3785863E0,4.4221824E-1,2.3845477E0,2.2664208E0,4.661871E-1,-1.5666613E-1,2.2147167E0,1.2523038E0,1.6600722E-1,2.4399263E-1,1.8439962E0,2.3853147E0,3.4413174E-2,-3.567889E-2,2.3647597E0,-7.672775E-2,2.3678555E0,1.5470496E0,2.3846257E0,1.5543085E0,-1.5756574E-1,2.3539183E0,2.3614812E0,6.20772E-2,2.3914654E0,3.2805756E-1,1.4301546E0,-1.5683936E-1,2.7799228E-2,2.2953107E0,1.0053269E0,-1.418609E-1,2.3674724E0,-9.659443E-2],"split_indices":[37,19,50,41,26,19,19,46,50,15,41,58,59,26,0,26,0,50,27,18,30,44,41,33,29,50,32,37,50,25,30,0,0,30,0,50,40,26,31,50,15,26,19,50,32,0,0,32,12,63,61,0,0,40,50,27,15,0,0,0,0,0,0,0,0,0,0,0,0,0,0,0,0,0,0,0,0,0,0,0,0,0,0,0,0,0,0,0,0,0,0,0,0,0,0,0,0,0,0,0,0],"split_type":[0,0,0,0,0,0,0,0,0,0,0,0,0,0,0,0,0,0,0,0,0,0,0,0,0,0,0,0,0,0,0,0,0,0,0,0,0,0,0,0,0,0,0,0,0,0,0,0,0,0,0,0,0,0,0,0,0,0,0,0,0,0,0,0,0,0,0,0,0,0,0,0,0,0,0,0,0,0,0,0,0,0,0,0,0,0,0,0,0,0,0,0,0,0,0,0,0,0,0,0,0],"sum_hessian":[1.2173504E6,4.4722594E5,7.701245E5,2.8210372E5,1.6512222E5,7.1296325E5,5.716125E4,8.377465E4,1.9832906E5,1.1608055E5,4.904168E4,6.405615E5,7.240172E4,2.2997578E4,3.416367E4,8.296078E4,8.138672E2,8.068945E4,1.1763961E5,1.155525E5,5.280469E2,3.540539E4,1.3636289E4,7.483594E2,6.398132E5,6.1907344E4,1.0494375E4,2.2815586E4,1.8199219E2,5.9963555E4,2.2997227E4,1.1425781E2,6.996094E2,4.8477305E4,3.2212148E4,1.1394832E5,3.691289E3,1.15504336E5,4.8164062E1,1.7226562E1,5.108203E2,3.5376914E4,2.8476562E1,1.1931094E4,1.7051953E3,1.0546875E0,7.473047E2,6.395611E5,2.5207031E2,1.1109375E2,6.179625E4,1.0199766E4,2.9460938E2,2.2784883E4,3.0703125E1,4.3125E1,1.3886719E2,5.9951133E4,1.2421875E1,2.2985156E4,1.20703125E1,7.8548438E3,4.062246E4,2.4234375E2,3.1969805E4,2.6790117E4,8.71582E4,3.6835547E3,7.734375E0,1.1367047E5,1.8338672E3,1.171875E0,4.6992188E1,1.1953125E1,5.2734375E0,4.780078E2,3.28125E1,3.432422E2,3.503367E4,1.37109375E1,1.4765625E1,4.161328E2,1.1514961E4,1.5669141E3,1.3828125E2,6.393588E5,2.0226562E2,1.8796875E2,6.410156E1,9.246094E1,1.8632812E1,6.179508E4,1.171875E0,5.0039062E1,2.2734844E4,3.046875E0,2.765625E1,2.2265625E0,4.0898438E1,1.3734375E2,1.5234375E0],"tree_param":{"num_deleted":"0","num_feature":"70","num_nodes":"101","size_leaf_vector":"1"}},{"base_weights":[-3.82894E-1,-5.250223E-1,2.713493E-1,-1.19152464E-1,-5.331817E-1,7.616111E0,-5.1945776E-1,-5.24847E-1,-1.5999983E-1,7.850399E0,-1.5972935E-1,-5.327863E-1,-1.5284403E-1,-5.318729E-1,-3.5823902E-1,-5.222465E-1,7.982039E0,-5.3296053E-1,-5.76305E-2,2.3921998E0,-5.331001E-1,-4.9729165E-1,-5.33106E-1,5.274448E0,-4.405227E-1,-1.5949629E-1,3.5589355E-1,7.99876E0,-9.948793E-2,-1.599325E-1,-3.7139183E-1,-1.5758148E-1,1.7253295E0,-1.5997566E-1,6.387833E-2,-1.5911122E-1,-4.9742762E-2,4.047218E-3,-1.599704E-1,1.8989749E0,-9.659443E-2,-1.5361793E-1,2.2480276E-1,6.545455E-1,2.3997173E0,-1.4870517E-1,1.5979112E0,-1.5907153E-1,1.5987159E0],"categories":[],"categories_nodes":[],"categories_segments":[],"categories_sizes":[],"default_left":[0,0,0,0,0,0,0,0,0,0,0,0,0,0,0,0,0,0,0,0,0,0,0,0,0,0,0,0,0,0,0,0,0,0,0,0,0,0,0,0,0,0,0,0,0,0,0,0,0],"id":1,"left_children":[1,3,5,-1,7,9,11,13,-1,15,-1,17,19,21,23,25,27,29,31,-1,33,35,37,39,41,-1,-1,43,45,-1,47,-1,-1,-1,-1,-1,-1,-1,-1,-1,-1,-1,-1,-1,-1,-1,-1,-1,-1],"loss_changes":[1.1319431E5,1.0430312E3,1.2618854E6,0E0,8.75E-1,4.032075E4,9.5833203E2,1.9470215E1,0E0,2.26295E4,0E0,1.56328125E1,2.1271617E4,4.21875E-1,3.187307E2,5.753357E0,2.731875E3,4.3242188E0,1.9450587E2,0E0,8.594971E-1,6.159027E0,1.1005859E0,6.0552856E1,5.773491E1,0E0,0E0,1.75E1,9.4472824E1,0E0,1.623699E2,0E0,0E0,0E0,0E0,0E0,0E0,0E0,0E0,0E0,0E0,0E0,0E0,0E0,0E0,0E0,0E0,0E0,0E0],"parents":[2147483647,0,0,1,1,2,2,4,4,5,5,6,6,7,7,9,9,11,11,12,12,13,13,14,14,15,15,16,16,17,17,18,18,20,20,21,21,22,22,23,23,24,24,27,27,28,28,30,30],"right_children":[2,4,6,-1,8,10,12,14,-1,16,-1,18,20,22,24,26,28,30,32,-1,34,36,38,40,42,-1,-1,44,46,-1,48,-1,-1,-1,-1,-1,-1,-1,-1,-1,-1,-1,-1,-1,-1,-1,-1,-1,-1],"split_conditions":[8.08E3,1E0,9.457E3,-1.19152464E-1,2.1E1,1.0227E4,2.2980971E2,5.230143E6,-1.5999983E-1,2.91E2,-1.5972935E-1,3.77412E5,6.2E1,3.1955E3,1.8818315E6,2.4E1,3.7372E4,1.2E1,1E0,2.3921998E0,5.3980566E2,7E0,1.6E1,3.18E7,2.8E1,-1.5949629E-1,3.5589355E-1,3.69E2,1.7609E5,-1.599325E-1,1E0,-1.5758148E-1,1.7253295E0,-1.5997566E-1,6.387833E-2,-1.5911122E-1,-4.9742762E-2,4.047218E-3,-1.599704E-1,1.8989749E0,-9.659443E-2,-1.5361793E-1,2.2480276E-1,6.545455E-1,2.3997173E0,-1.4870517E-1,1.5979112E0,-1.5907153E-1,1.5987159E0],"split_indices":[19,64,19,0,19,50,14,34,0,35,0,8,53,32,32,5,32,64,59,0,14,64,33,24,64,0,0,24,8,0,59,0,0,0,0,0,0,0,0,0,0,0,0,0,0,0,0,0,0],"split_type":[0,0,0,0,0,0,0,0,0,0,0,0,0,0,0,0,0,0,0,0,0,0,0,0,0,0,0,0,0,0,0,0,0,0,0,0,0,0,0,0,0,0,0,0,0,0,0,0,0],"sum_hessian":[1.2173171E6,1.0000629E6,2.1725425E5,5.999918E4,9.400637E5,2.111707E4,1.9613719E5,1.679461E4,9.232691E5,2.0526914E4,5.9015625E2,1.8925617E5,6.8810156E3,1.611293E4,6.816797E2,3.176953E2,2.0209219E4,1.8918669E5,6.949219E1,3.066797E2,6.574336E3,5.6871094E2,1.5544219E4,8.90625E0,6.7277344E2,3.1664062E2,1.0546875E0,2.01675E4,4.171875E1,1.8901148E5,1.7519531E2,6.515625E1,4.3359375E0,6.5732812E3,1.0546875E0,5.165625E2,5.2148438E1,3.6328125E0,1.5540586E4,7.3828125E0,1.5234375E0,6.3515625E2,3.7617188E1,1.40625E0,2.0166094E4,3.9726562E1,1.9921875E0,1.7132812E2,3.8671875E0],"tree_param":{"num_deleted":"0","num_feature":"70","num_nodes":"49","size_leaf_vector":"1"}},{"base_weights":[-5.330077E-1,-5.3307086E-1,-1.9079833E-1,-1.5994316E-1,-3.648446E-1,-2.6220924E-1,7.756949E-2,-1.5968281E-1,2.669648E0,-1.4089929E-1,-2.0147091E-1,1.0059881E-1,1.3597734E-2,2.1170797E0,-4.446453E-1,-1.8969595E-1,-1.3243608E-1,-1.5014438E-1,6.387833E-2,4.3113776E-2,-6.045376E-2],"categories":[],"categories_nodes":[],"categories_segments":[],"categories_sizes":[],"default_left":[0,0,0,0,0,0,0,0,0,0,0,0,0,0,0,0,0,0,0,0,0],"id":2,"left_children":[1,3,5,-1,7,9,11,-1,13,-1,15,-1,-1,-1,17,19,-1,-1,-1,-1,-1],"loss_changes":[2.625E1,1.471875E1,4.3582287E0,0E0,2.7140436E2,2.1609592E0,3.865923E-1,0E0,3.8506946E2,0E0,3.124857E-1,0E0,0E0,0E0,7.413554E-1,5.624571E-1,0E0,0E0,0E0,0E0,0E0],"parents":[2147483647,0,0,1,1,2,2,4,4,5,5,6,6,8,8,10,10,14,14,15,15],"right_children":[2,4,6,-1,8,10,12,-1,14,-1,16,-1,-1,-1,18,20,-1,-1,-1,-1,-1],"split_conditions":[4.73E2,5.2E1,4.000353E6,-1.5994316E-1,1E0,2.1369766E7,2.1369766E7,-1.5968281E-1,1.149E3,-1.4089929E-1,2E7,1.0059881E-1,1.3597734E-2,2.1170797E0,3.024E2,3.999946E6,-1.3243608E-1,-1.5014438E-1,6.387833E-2,4.3113776E-2,-6.045376E-2],"split_indices":[54,29,2,0,20,46,46,0,52,0,25,0,0,0,38,1,0,0,0,0,0],"split_type":[0,0,0,0,0,0,0,0,0,0,0,0,0,0,0,0,0,0,0,0,0],"sum_hessian":[1.2175712E6,1.2173459E6,2.2535156E2,1.2168155E6,5.303906E2,1.7800781E2,4.734375E1,5.034375E2,2.6953125E1,3.8789062E1,1.3921875E2,4.21875E0,4.3125E1,1.06640625E1,1.6289062E1,1.3441406E2,4.8046875E0,1.5234375E1,1.0546875E0,4.21875E0,1.3019531E2],"tree_param":{"num_deleted":"0","num_feature":"70","num_nodes":"21","size_leaf_vector":"1"}},{"base_weights":[-5.33217E-1,-1.5998212E-1,-3.995008E-1,-1.5967886E-1,2.5808258E0,2.1066215E0,-1.4867257E-1],"categories":[],"categories_nodes":[],"categories_segments":[],"categories_sizes":[],"default_left":[0,0,0,0,0,0,0],"id":3,"left_children":[1,-1,3,-1,5,-1,-1],"loss_changes":[8.96875E0,0E0,2.0694812E2,0E0,3.085503E2,0E0,0E0],"parents":[2147483647,0,0,2,2,4,4],"right_children":[2,-1,4,-1,6,-1,-1],"split_conditions":[5.2E1,-1.5998212E-1,6.995315E2,-1.5967886E-1,4.43E2,2.1066215E0,-1.4867257E-1],"split_indices":[29,0,55,0,19,0,0],"split_type":[0,0,0,0,0,0,0],"sum_hessian":[1.2169528E6,1.2164342E6,5.185547E2,4.9722656E2,2.1328125E1,8.203125E0,1.3125E1],"tree_param":{"num_deleted":"0","num_feature":"70","num_nodes":"7","size_leaf_vector":"1"}},{"base_weights":[-1.7272964E-1,-5.290774E-1,6.7044634E-1,-5.31972E-1,5.149505E-3,-5.051177E-1,3.486846E0,-5.322997E-1,-4.7586617E-1,-5.2253294E-1,3.657379E0,7.7627724E-1,-5.204794E-1,4.5760946E0,-1.5999295E-1,-1.5992573E-1,-5.248217E-1,-5.3041506E-1,3.2914785E-1,-5.254962E-1,1.0047939E0,-1.5937701E-1,6.940428E0,-1.5992363E-1,3.7287753E0,-3.511912E-1,-5.3020203E-1,6.097823E0,-1.5999168E-1,7.01949E0,-5.3236973E-1,-1.5918799E-1,-3.4241244E-1,-1.5933612E-1,3.095427E0,-5.3039914E-1,-3.147301E-1,-1.3401017E-1,1.0966058E0,-3.7143487E-2,7.760447E0,7.1047063E0,-1.5961118E-1,1.0576937E0,-4.2273846E-1,-5.312836E-1,-2.8343624E-1,-1.5998201E-1,7.156905E0,2.3106787E0,-1.3916582E-1,1.6204767E0,-1.599048E-1,5.1798563E-2,-1.3667427E-1,-1.2286689E-1,1.8872858E0,-1.3227142E-1,-1.5941793E-1,9.628743E-1,-1.5487242E-1,-1.5479939E-1,7.8429174E-1,2.3748665E0,-2.7809965E-3,2.325898E0,-1.5614894E-1,1.6929604E0,-1.596752E-1,-1.55806E-1,-1.5657555E-2,-1.452936E-1,-1.5994412E-1,7.720816E-1,-1.4055072E-1,2.4013627E-1,2.2138739E0],"categories":[],"categories_nodes":[],"categories_segments":[],"categories_sizes":[],"default_left":[0,0,0,0,0,0,0,0,0,0,0,0,0,0,0,0,0,0,0,0,0,0,0,0,0,0,0,0,0,0,0,0,0,0,0,0,0,0,0,0,0,0,0,0,0,0,0,0,0,0,0,0,0,0,0,0,0,0,0,0,0,0,0,0,0,0,0,0,0,0,0,0,0,0,0,0,0],"id":4,"left_children":[1,3,5,7,9,11,13,15,17,19,21,23,25,27,-1,-1,29,31,33,35,37,-1,39,-1,41,43,45,47,-1,49,51,-1,53,-1,55,57,59,-1,-1,61,63,65,-1,67,69,71,73,-1,75,-1,-1,-1,-1,-1,-1,-1,-1,-1,-1,-1,-1,-1,-1,-1,-1,-1,-1,-1,-1,-1,-1,-1,-1,-1,-1,-1,-1],"loss_changes":[3.6573972E5,1.3231406E3,1.1972542E6,1.5390625E1,8.89042E3,5.0223984E3,4.6631312E5,4.6875E0,2.1759607E2,1.8770264E1,8.0121055E3,1.1687277E4,4.147578E2,6.514601E5,0E0,0E0,4.5900996E3,2.8076172E-3,7.508537E2,3.9909668E0,3.2982098E1,0E0,1.8687051E3,0E0,1.3363452E4,1.380982E3,6.3484375E1,4.533985E5,0E0,4.1524243E2,3.114297E2,0E0,5.4680413E-1,0E0,8.4067126E2,1.15356445E-1,6.83647E1,0E0,0E0,4.6213543E1,3.537422E2,2.5659844E3,0E0,4.8307E3,4.6660693E2,2.0515625E1,5.524519E2,0E0,7.87885E4,0E0,0E0,0E0,0E0,0E0,0E0,0E0,0E0,0E0,0E0,0E0,0E0,0E0,0E0,0E0,0E0,0E0,0E0,0E0,0E0,0E0,0E0,0E0,0E0,0E0,0E0,0E0,0E0],"parents":[2147483647,0,0,1,1,2,2,3,3,4,4,5,5,6,6,7,7,8,8,9,9,10,10,11,11,12,12,13,13,16,16,17,17,18,18,19,19,20,20,22,22,24,24,25,25,26,26,27,27,29,29,30,30,32,32,34,34,35,35,36,36,39,39,40,40,41,41,43,43,44,44,45,45,46,46,48,48],"right_children":[2,4,6,8,10,12,14,16,18,20,22,24,26,28,-1,-1,30,32,34,36,38,-1,40,-1,42,44,46,48,-1,50,52,-1,54,-1,56,58,60,-1,-1,62,64,66,-1,68,70,72,74,-1,76,-1,-1,-1,-1,-1,-1,-1,-1,-1,-1,-1,-1,-1,-1,-1,-1,-1,-1,-1,-1,-1,-1,-1,-1,-1,-1,-1,-1],"split_conditions":[2.48E2,2.36E2,6.5852295E1,2.24E2,9.596929E1,3.2273E4,2.4E1,4.663092E2,1.0785392E2,8.8401695E1,1E0,1E0,4.7636E4,4.43E2,-1.5999295E-1,-1.5992573E-1,7.843E3,9.596929E1,1E0,7.071136E1,1E0,-1.5937701E-1,1.7E1,-1.5992363E-1,4.8E1,4.589156E1,7.071136E1,8E1,-1.5999168E-1,3.3740482E2,6E0,-1.5918799E-1,8.319111E3,-1.5933612E-1,1.9E1,2.37E2,1.5766E4,-1.3401017E-1,1.0966058E0,1.4E1,9E0,4.43E2,-1.5961118E-1,4.8E1,1E0,6.3358E4,3.16E2,-1.5998201E-1,4.81E2,2.3106787E0,-1.3916582E-1,1.6204767E0,-1.599048E-1,5.1798563E-2,-1.3667427E-1,-1.2286689E-1,1.8872858E0,-1.3227142E-1,-1.5941793E-1,9.628743E-1,-1.5487242E-1,-1.5479939E-1,7.8429174E-1,2.3748665E0,-2.7809965E-3,2.325898E0,-1.5614894E-1,1.6929604E0,-1.596752E-1,-1.55806E-1,-1.5657555E-2,-1.452936E-1,-1.5994412E-1,7.720816E-1,-1.4055072E-1,2.4013627E-1,2.2138739E0],"split_indices":[33,33,41,33,15,23,43,14,15,15,59,0,23,19,0,0,23,15,59,15,59,0,8,0,30,28,15,19,0,55,58,0,34,0,8,23,31,0,0,8,26,19,0,30,0,23,63,0,31,0,0,0,0,0,0,0,0,0,0,0,0,0,0,0,0,0,0,0,0,0,0,0,0,0,0,0,0],"split_type":[0,0,0,0,0,0,0,0,0,0,0,0,0,0,0,0,0,0,0,0,0,0,0,0,0,0,0,0,0,0,0,0,0,0,0,0,0,0,0,0,0,0,0,0,0,0,0,0,0,0,0,0,0,0,0,0,0,0,0,0,0,0,0,0,0,0,0,0,0,0,0,0,0,0,0,0,0],"sum_hessian":[1.2172481E6,8.556351E5,3.6161297E5,8.5102406E5,4.6110938E3,2.5512481E5,1.06488164E5,8.460738E5,4.9502344E3,4.0297266E3,5.813672E2,3.0216797E3,2.5210312E5,8.378637E4,2.2701797E4,7.6553425E5,8.053957E4,4.6364062E3,3.1382812E2,4.0225781E3,7.1484375E0,2.5582031E2,3.2554688E2,2.0939062E3,9.2777344E2,1.3694531E4,2.384086E5,6.455871E4,1.9227656E4,7.957031E1,8.046E4,4.629375E3,7.03125E0,2.4E2,7.3828125E1,3.9296484E3,9.292969E1,5.15625E0,1.9921875E0,3.4335938E1,2.9121094E2,5.172656E2,4.105078E2,6.611719E2,1.3033359E4,2.3736703E5,1.0415625E3,8.891016E3,5.5667695E4,7.2890625E1,6.6796875E0,7.8515625E0,8.045215E4,1.171875E0,5.859375E0,3.5625E1,3.8203125E1,4.8046875E1,3.8816016E3,4.21875E0,8.871094E1,2.9765625E1,4.5703125E0,2.8546875E2,5.7421875E0,4.7671875E2,4.0546875E1,1.6957031E2,4.9160156E2,1.0337578E4,2.6957812E3,9.067148E3,2.2829988E5,6.2578125E1,9.789844E2,1.8842578E3,5.3783438E4],"tree_param":{"num_deleted":"0","num_feature":"70","num_nodes":"77","size_leaf_vector":"1"}},{"base_weights":[-5.3241616E-1,-5.3333044E-1,1.4647919E0,-1.5999988E-1,-3.7834132E-1,5.3740053E0,-1.5956733E-1,-1.5264103E-1,3.5589355E-1,6.805774E0,2.5859644E0,2.1806223E0,1.3635287E0,3.7131817E0,1.141082E0,-1.3350582E-1,4.395714E0,8.35046E-1,1.3515358E0,-1.1803279E-1,1.4644402E0,-1.3947897E-1,3.7680343E-1],"categories":[],"categories_nodes":[],"categories_segments":[],"categories_sizes":[],"default_left":[0,0,0,0,0,0,0,0,0,0,0,0,0,0,0,0,0,0,0,0,0,0,0],"id":5,"left_children":[1,3,5,-1,7,9,-1,-1,-1,11,13,-1,-1,15,17,-1,19,21,-1,-1,-1,-1,-1],"loss_changes":[2.2236562E3,2.5E-1,4.3527554E3,0E0,5.257079E0,7.3486035E2,0E0,0E0,0E0,9.667041E1,1.0255707E2,0E0,0E0,1.0523663E2,2.7308517E1,0E0,7.4855286E1,1.63942E1,0E0,0E0,0E0,0E0,0E0],"parents":[2147483647,0,0,1,1,2,2,4,4,5,5,9,9,10,10,13,13,14,14,16,16,17,17],"right_children":[2,4,6,-1,8,10,-1,-1,-1,12,14,-1,-1,16,18,-1,20,22,-1,-1,-1,-1,-1],"split_conditions":[9.584E3,4.82E2,8E0,-1.5999988E-1,8.587863E3,1E0,-1.5956733E-1,-1.5264103E-1,3.5589355E-1,1.1862396E3,3.395889E4,2.1806223E0,1.3635287E0,5.778066E2,6.698209E4,-1.3350582E-1,5.363866E7,7.71E2,1.3515358E0,-1.1803279E-1,1.4644402E0,-1.3947897E-1,3.7680343E-1],"split_indices":[30,64,5,0,22,26,0,0,0,41,22,0,0,22,22,0,23,25,0,0,0,0,0],"split_type":[0,0,0,0,0,0,0,0,0,0,0,0,0,0,0,0,0,0,0,0,0,0,0],"sum_hessian":[1.2173904E6,1.2168341E6,5.5628906E2,1.2168122E6,2.1796875E1,1.875E2,3.6878906E2,2.0742188E1,1.0546875E0,1.2292969E2,6.457031E1,1.0019531E2,2.2734375E1,3.5390625E1,2.9179688E1,5.0390625E0,3.0351562E1,2.7890625E1,1.2890625E0,2.8125E0,2.7539062E1,6.796875E0,2.109375E1],"tree_param":{"num_deleted":"0","num_feature":"70","num_nodes":"23","size_leaf_vector":"1"}},{"base_weights":[-2.301981E-1,-3.643199E-1,1.9227861E0,-5.252244E-1,1.3034117E0,6.0852895E0,-4.206827E-1,-5.3095984E-1,9.697025E-2,7.969237E0,-1.5999797E-1,7.3812256E0,-1.5996201E-1,-4.4044033E-1,8.339877E-1,-5.313571E-1,6.5855587E-1,-1.5997803E-1,2.122075E0,7.998664E0,-4.0979955E-1,-1.5987268E-1,7.8720675E0,-3.4810567E-1,-1.5999286E-1,3.7566614E0,-1.5966913E-1,-5.32544E-1,-4.0298197E-1,-7.906007E-3,3.6816194E0,5.3893623E0,-1.5987211E-1,-1.13769755E-1,2.3998895E0,6.955614E-1,-5.129377E-1,7.9914336E0,-1.5943757E-1,-5.236188E-1,2.3948421E0,-1.585545E-1,7.8104725E0,-1.5978624E-1,-9.789744E-2,-1.5800612E-1,1.16703644E-1,1.8819562E0,-3.3434365E-2,6.472423E-1,1.892099E0,2.00979E0,-1.5913507E-1,6.387833E-2,-1.578415E-1,2.3979857E0,-1.3001464E-1,-1.5852332E-1,7.41472E-1,2.3790278E0,-9.9408284E-2],"categories":[],"categories_nodes":[],"categories_segments":[],"categories_sizes":[],"default_left":[0,0,0,0,0,0,0,0,0,0,0,0,0,0,0,0,0,0,0,0,0,0,0,0,0,0,0,0,0,0,0,0,0,0,0,0,0,0,0,0,0,0,0,0,0,0,0,0,0,0,0,0,0,0,0,0,0,0,0,0,0],"id":6,"left_children":[1,3,5,7,9,11,13,15,17,19,-1,21,-1,23,25,27,29,-1,31,33,35,-1,37,39,-1,41,-1,43,45,47,49,51,-1,-1,-1,-1,53,55,-1,57,-1,-1,59,-1,-1,-1,-1,-1,-1,-1,-1,-1,-1,-1,-1,-1,-1,-1,-1,-1,-1],"loss_changes":[3.5146984E5,3.0746612E5,6.962679E5,3.7290938E3,1.2343741E6,2.2052588E5,1.1324478E3,4.8965625E2,1.2183828E4,5.373375E3,0E0,8.3525E4,0E0,3.853545E2,2.830423E3,1.5746875E2,6.97371E2,0E0,1.9657459E4,1.79E2,2.290511E1,0E0,2.0312125E4,3.297368E4,0E0,3.925969E3,0E0,1.603125E1,9.2959827E2,1.8578642E2,2.3657751E2,7.880998E3,0E0,0E0,0E0,0E0,8.32386E-1,3.14875E2,0E0,3.1828857E2,0E0,0E0,1.1567969E2,0E0,0E0,0E0,0E0,0E0,0E0,0E0,0E0,0E0,0E0,0E0,0E0,0E0,0E0,0E0,0E0,0E0,0E0],"parents":[2147483647,0,0,1,1,2,2,3,3,4,4,5,5,6,6,7,7,8,8,9,9,11,11,13,13,14,14,15,15,16,16,18,18,19,19,20,20,22,22,23,23,25,25,27,27,28,28,29,29,30,30,31,31,36,36,37,37,39,39,42,42],"right_children":[2,4,6,8,10,12,14,16,18,20,-1,22,-1,24,26,28,30,-1,32,34,36,-1,38,40,-1,42,-1,44,46,48,50,52,-1,-1,-1,-1,54,56,-1,58,-1,-1,60,-1,-1,-1,-1,-1,-1,-1,-1,-1,-1,-1,-1,-1,-1,-1,-1,-1,-1],"split_conditions":[1.839065E6,4.82E2,4.603596E7,4.18839E5,9.72E2,4.43E2,8.847154E7,1.2E8,1E0,1.9599E4,-1.5999797E-1,2.37E2,-1.5996201E-1,2.238E3,2.238E3,9.8146E4,1.1013215E3,-1.5997803E-1,4.43E2,9.64E2,2.3665E4,-1.5987268E-1,2.238E3,1.825E3,-1.5999286E-1,1.1E2,-1.5966913E-1,9.584E3,2.049E3,5.31227E5,1E0,2.238E3,-1.5987211E-1,-1.13769755E-1,2.3998895E0,6.955614E-1,1.1E1,4.8E1,-1.5943757E-1,8.066674E7,2.3948421E0,-1.585545E-1,4.43E2,-1.5978624E-1,-9.789744E-2,-1.5800612E-1,1.16703644E-1,1.8819562E0,-3.3434365E-2,6.472423E-1,1.892099E0,2.00979E0,-1.5913507E-1,6.387833E-2,-1.578415E-1,2.3979857E0,-1.3001464E-1,-1.5852332E-1,7.41472E-1,2.3790278E0,-9.9408284E-2],"split_indices":[26,14,23,26,61,19,45,35,0,35,0,50,0,50,50,26,41,0,19,11,35,0,50,50,0,50,0,30,50,31,26,50,0,0,0,0,33,30,0,46,0,0,19,0,0,0,0,0,0,0,0,0,0,0,0,0,0,0,0,0,0],"split_type":[0,0,0,0,0,0,0,0,0,0,0,0,0,0,0,0,0,0,0,0,0,0,0,0,0,0,0,0,0,0,0,0,0,0,0,0,0,0,0,0,0,0,0,0,0,0,0,0,0,0,0,0,0,0,0,0,0,0,0,0,0],"sum_hessian":[1.2171572E6,1.1457808E6,7.1376445E4,1.0449624E6,1.008184E5,2.5709414E4,4.566703E4,1.0354179E6,9.544453E3,2.1778242E4,7.904016E4,2.149957E4,4.2098438E3,4.4959688E4,7.0734375E2,1.03507275E6,3.451172E2,7.2796875E3,2.2647656E3,2.170207E4,7.6171875E1,1.2555469E3,2.0244023E4,2.254711E4,2.2412578E4,2.2476562E2,4.8257812E2,1.0255876E6,9.485156E3,2.8359375E2,6.1523438E1,1.01484375E3,1.2499219E3,2.4609375E0,2.169961E4,1.9921875E0,7.417969E1,1.9960547E4,2.8347656E2,2.2082812E4,4.6429688E2,1.096875E2,1.15078125E2,1.02520444E6,3.8320312E2,8.2040625E3,1.2810938E3,3.6328125E0,2.7996094E2,4.0078125E1,2.1445312E1,8.308594E2,1.8398438E2,1.0546875E0,7.3125E1,1.995621E4,4.3359375E0,2.204836E4,3.4453125E1,1.134375E2,1.640625E0],"tree_param":{"num_deleted":"0","num_feature":"70","num_nodes":"61","size_leaf_vector":"1"}},{"base_weights":[-5.1147896E-1,-1.5999958E-1,-2.967704E-1,-4.024027E-1,7.6017857E0,-4.7285143E-1,6.5553837E0,7.945923E0,-1.573871E-1,-5.1934326E-1,1.556477E0,2.3951397E0,-1.5914696E-1,-1.4168158E-1,2.3976698E0,-5.256866E-1,1.3827852E0,7.8030844E0,-5.222179E-1,-1.578124E-1,1.9598855E0,2.3486927E0,-1.5942112E-1,-1.4876577E-1,2.3960083E0,-1.5991329E-1,1.6822431E0],"categories":[],"categories_nodes":[],"categories_segments":[],"categories_sizes":[],"default_left":[0,0,0,0,0,0,0,0,0,0,0,0,0,0,0,0,0,0,0,0,0,0,0,0,0,0,0],"id":7,"left_children":[1,-1,3,5,7,9,11,13,-1,15,17,-1,-1,-1,-1,19,21,23,25,-1,-1,-1,-1,-1,-1,-1,-1],"loss_changes":[5.7115E3,0E0,9.382853E4,5.4397547E4,4.154672E3,1.0365781E4,1.1263527E4,5.588672E2,0E0,1.2965996E3,3.19566E4,0E0,0E0,0E0,0E0,2.714375E2,4.412348E3,9.4028516E2,1.25578766E2,0E0,0E0,0E0,0E0,0E0,0E0,0E0,0E0],"parents":[2147483647,0,0,2,2,3,3,4,4,5,5,6,6,7,7,9,9,10,10,15,15,16,16,17,17,18,18],"right_children":[2,-1,4,6,8,10,12,14,-1,16,18,-1,-1,-1,-1,20,22,24,26,-1,-1,-1,-1,-1,-1,-1,-1],"split_conditions":[3.2E1,-1.5999958E-1,4.8521603E2,1.839065E6,2.25E2,3.2669394E2,2.29E2,9.64E2,-1.573871E-1,1.808622E6,7.06E2,2.3951397E0,-1.5914696E-1,-1.4168158E-1,2.3976698E0,3.489E3,2.4E1,8E1,9E0,-1.578124E-1,1.9598855E0,2.3486927E0,-1.5942112E-1,-1.4876577E-1,2.3960083E0,-1.5991329E-1,1.6822431E0],"split_indices":[43,0,14,26,49,14,50,52,0,33,61,0,0,0,0,63,5,5,29,0,0,0,0,0,0,0,0],"split_type":[0,0,0,0,0,0,0,0,0,0,0,0,0,0,0,0,0,0,0,0,0,0,0,0,0,0,0],"sum_hessian":[1.2173069E6,1.1048535E6,1.1245336E5,1.10970234E5,1.483125E3,1.0985883E5,1.1114062E3,1.4228906E3,6.0234375E1,1.0739906E5,2.4597656E3,9.2484375E2,1.865625E2,7.734375E0,1.4151562E3,1.0704281E5,3.5625E2,6.1347656E2,1.8462891E3,1.0703836E5,4.453125E0,8.0859375E1,2.7539062E2,1.32421875E1,6.002344E2,1.8439453E3,2.34375E0],"tree_param":{"num_deleted":"0","num_feature":"70","num_nodes":"27","size_leaf_vector":"1"}},{"base_weights":[-2.9040998E-1,-5.1887447E-1,1.9564829E0,-8.3211616E-2,-5.327387E-1,6.94006E0,-3.3464706E-1,-1.5999985E-1,-4.1987085E-1,7.954972E0,-5.29665E-1,-4.429359E-1,6.827864E0,-1.599704E-1,2.367468E0,7.9988384E0,-1.5900742E-1,1.4209633E0,-5.329711E-1,-1.5999778E-1,1.2822962E0,-4.498135E-2,7.7786136E0,7.999419E0,-1.0854272E-1,-1.5996216E-1,-2.3277183E-1,5.4889674E0,-1.7859124E-1,-4.7816333E-1,2.195704E0,7.9745955E0,-1.5338928E-1,-8.633094E-2,2.3999226E0,-1.13769755E-1,1.4201184E-2,2.3965108E0,-1.5944149E-1,1.9363499E0,-9.8149605E-2,-1.5608068E-1,6.479088E-1,2.1096408E0,-1.4977534E-1,-1.06527425E-1,2.3975563E0],"categories":[],"categories_nodes":[],"categories_segments":[],"categories_sizes":[],"default_left":[0,0,0,0,0,0,0,0,0,0,0,0,0,0,0,0,0,0,0,0,0,0,0,0,0,0,0,0,0,0,0,0,0,0,0,0,0,0,0,0,0,0,0,0,0,0,0],"id":8,"left_children":[1,3,5,-1,7,9,11,-1,13,15,17,19,21,-1,-1,23,-1,-1,25,-1,27,29,31,33,-1,-1,35,37,39,41,43,45,-1,-1,-1,-1,-1,-1,-1,-1,-1,-1,-1,-1,-1,-1,-1],"loss_changes":[6.2500844E5,3.7002188E3,1.2830909E6,0E0,6.984375E1,2.6831212E5,5.9712855E4,0E0,5.165547E3,1.1601625E4,7.624805E1,1.1827104E4,7.4928047E3,0E0,0E0,1.53375E2,0E0,0E0,1.7578125E-1,0E0,2.3205324E4,1.3726341E2,1.6405977E3,8.5125E1,0E0,0E0,2.2724324E-1,1.4650049E4,2.7650144E3,1.4276569E1,3.0217194E2,1.443086E2,0E0,0E0,0E0,0E0,0E0,0E0,0E0,0E0,0E0,0E0,0E0,0E0,0E0,0E0,0E0],"parents":[2147483647,0,0,1,1,2,2,4,4,5,5,6,6,8,8,9,9,10,10,11,11,12,12,15,15,18,18,20,20,21,21,22,22,23,23,26,26,27,27,28,28,29,29,30,30,31,31],"right_children":[2,4,6,-1,8,10,12,-1,14,16,18,20,22,-1,-1,24,-1,-1,26,-1,28,30,32,34,-1,-1,36,38,40,42,44,46,-1,-1,-1,-1,-1,-1,-1,-1,-1,-1,-1,-1,-1,-1,-1],"split_conditions":[3.2E1,1E0,8E0,-8.3211616E-2,1E0,1.03372E5,1.8341613E4,-1.5999985E-1,9.35E2,4.43E2,6E0,1.8325E2,2.14E2,-1.599704E-1,2.367468E0,2.26E2,-1.5900742E-1,1.4209633E0,1.6736807E1,-1.5999778E-1,1.874E2,1.08E2,9.64E2,2.25E2,-1.0854272E-1,-1.5996216E-1,1.09650125E5,4.28E2,1.08E2,1.5341E4,1.4E2,7.06E2,-1.5338928E-1,-8.633094E-2,2.3999226E0,-1.13769755E-1,1.4201184E-2,2.3965108E0,-1.5944149E-1,1.9363499E0,-9.8149605E-2,-1.5608068E-1,6.479088E-1,2.1096408E0,-1.4977534E-1,-1.06527425E-1,2.3975563E0],"split_indices":[43,64,5,0,21,33,22,0,11,19,58,16,33,0,0,50,0,0,28,0,16,5,11,50,0,0,25,37,30,7,30,11,0,0,0,0,0,0,0,0,0,0,0,0,0,0,0],"split_type":[0,0,0,0,0,0,0,0,0,0,0,0,0,0,0,0,0,0,0,0,0,0,0,0,0,0,0,0,0,0,0,0,0,0,0,0,0,0,0,0,0,0,0,0,0,0,0],"sum_hessian":[1.2175416E6,1.1051688E6,1.1237297E5,6.0002344E4,1.0451664E6,3.5390625E4,7.698234E4,1.0396895E6,5.476875E3,3.1157227E4,4.2333984E3,7.583672E4,1.145625E3,5.4041016E3,7.277344E1,3.0997031E4,1.6019531E2,1.7578125E0,4.2316406E3,7.2061875E4,3.7748438E3,1.3933594E2,1.00628906E3,3.0994922E4,2.109375E0,4.227539E3,4.1015625E0,9.723047E2,2.802539E3,1.17421875E2,2.1914062E1,9.8308594E2,2.3203125E1,1.171875E0,3.099375E4,2.4609375E0,1.640625E0,6.8683594E2,2.8546875E2,6.046875E1,2.7420703E3,1.1636719E2,1.0546875E0,7.265625E0,1.46484375E1,1.9921875E0,9.8109375E2],"tree_param":{"num_deleted":"0","num_feature":"70","num_nodes":"47","size_leaf_vector":"1"}},{"base_weights":[-4.598458E-1,-5.31869E-1,2.6065912E0,-1.512898E-1,-1.5999988E-1,-1.2052534E-1,3.242533E0,-1.599494E-1,3.8424E0,4.9506073E0,8.8948244E-1,3.0681558E0,5.918541E0,1.687905E0,4.3493205E-1,1.5574104E0,1.8433417E0],"categories":[],"categories_nodes":[],"categories_segments":[],"categories_sizes":[],"default_left":[0,0,0,0,0,0,0,0,0,0,0,0,0,0,0,0,0],"id":9,"left_children":[1,3,5,-1,-1,-1,7,-1,9,11,-1,13,15,-1,-1,-1,-1],"loss_changes":[2.6883622E5,4.771875E1,5.3443266E4,0E0,0E0,0E0,5.2230438E4,0E0,1.9334781E4,1.6000875E4,0E0,1.2360596E4,9.218281E2,0E0,0E0,0E0,0E0],"parents":[2147483647,0,0,1,1,2,2,6,6,8,8,9,9,11,11,12,12],"right_children":[2,4,6,-1,-1,-1,8,-1,10,12,-1,14,16,-1,-1,-1,-1],"split_conditions":[4E1,1E0,2E0,-1.512898E-1,-1.5999988E-1,-1.2052534E-1,3.1746033E3,-1.599494E-1,5E5,1.4285714E5,8.8948244E-1,5E4,3.3333334E5,1.687905E0,4.3493205E-1,1.5574104E0,1.8433417E0],"split_indices":[43,66,23,0,0,0,15,0,15,41,0,15,15,0,0,0,0],"split_type":[0,0,0,0,0,0,0,0,0,0,0,0,0,0,0,0,0],"sum_hessian":[1.217247E6,1.1893136E6,2.7933281E4,5.99816E4,1.1293321E6,4.8745312E3,2.305875E4,3.16125E3,1.98975E4,8.790586E3,1.1106914E4,2.9865234E3,5.8040625E3,1.1562891E3,1.8302344E3,1.3815234E3,4.422539E3],"tree_param":{"num_deleted":"0","num_feature":"70","num_nodes":"17","size_leaf_vector":"1"}},{"base_weights":[-5.275528E-1,-5.300364E-1,1.3369474E0,-5.313201E-1,2.007113E0,-1.5987232E-1,7.706266E0,-5.3174067E-1,-4.4940677E-1,-1.5962681E-1,7.8078237E0,7.8887997E0,-1.4216028E-1,-5.330077E-1,-5.139667E-1,2.3511384E0,-5.236687E-1,2.38696E0,-1.2262774E-1,2.3932579E0,-1.263158E-1,-5.3310776E-1,-5.089395E-1,-1.927618E-1,-5.309972E-1,-1.5987644E-1,4.7156096E0,-1.5995291E-1,-1.5568845E-1,-1.599657E-1,9.198134E-1,1.932471E0,-1.3096279E-1,2.1464463E-2,-1.598837E-1,2.0874875E0,-1.2262774E-1],"categories":[],"categories_nodes":[],"categories_segments":[],"categories_sizes":[],"default_left":[0,0,0,0,0,0,0,0,0,0,0,0,0,0,0,0,0,0,0,0,0,0,0,0,0,0,0,0,0,0,0,0,0,0,0,0,0],"id":10,"left_children":[1,3,5,7,9,-1,11,13,15,-1,17,19,-1,21,23,-1,25,-1,-1,-1,-1,27,29,31,33,-1,35,-1,-1,-1,-1,-1,-1,-1,-1,-1,-1],"loss_changes":[5.6383438E3,3.9609375E3,1.929578E4,4.165625E1,9.0635205E3,0E0,5.5274023E2,2.69375E1,3.8281372E3,0E0,2.3214453E2,2.6857227E2,0E0,2.5E0,4.4011914E2,0E0,3.011305E2,0E0,0E0,0E0,0E0,7.8125E-1,4.0917053E2,6.558757E3,8.976172E1,0E0,1.2881094E2,0E0,0E0,0E0,0E0,0E0,0E0,0E0,0E0,0E0,0E0],"parents":[2147483647,0,0,1,1,2,2,3,3,4,4,6,6,7,7,8,8,10,10,11,11,13,13,14,14,16,16,21,21,22,22,23,23,24,24,26,26],"right_children":[2,4,6,8,10,-1,12,14,16,-1,18,20,-1,22,24,-1,26,-1,-1,-1,-1,28,30,32,34,-1,36,-1,-1,-1,-1,-1,-1,-1,-1,-1,-1],"split_conditions":[2.9515988E7,9.47E7,2.6883E4,1.6041666E6,5.2E1,-1.5987232E-1,4.43E2,9.99083E5,6.2E0,-1.5962681E-1,6.8E1,2.4367445E1,-1.4216028E-1,1.4307306E7,1.6260544E6,2.3511384E0,3.3943762E2,2.38696E0,-1.2262774E-1,2.3932579E0,-1.263158E-1,1E0,2.6883E4,9.897105E-1,1E1,-1.5987644E-1,3.6537805E2,-1.5995291E-1,-1.5568845E-1,-1.599657E-1,9.198134E-1,1.932471E0,-1.3096279E-1,2.1464463E-2,-1.598837E-1,2.0874875E0,-1.2262774E-1],"split_indices":[9,46,50,22,5,0,19,33,53,0,5,22,0,7,32,0,14,0,0,0,0,21,50,28,26,0,14,0,0,0,0,0,0,0,0,0,0],"split_type":[0,0,0,0,0,0,0,0,0,0,0,0,0,0,0,0,0,0,0,0,0,0,0,0,0,0,0,0,0,0,0,0,0,0,0,0,0],"sum_hessian":[1.2174472E6,1.2158284E6,1.6188281E3,1.2152144E6,6.140625E2,1.2521484E3,3.666797E2,1.2090011E6,6.213164E3,4.2773438E2,1.8632812E2,3.5871094E2,7.96875E0,1.1285271E6,8.047406E4,5.4257812E1,6.1589062E3,1.8304688E2,3.28125E0,3.5496094E2,3.75E0,1.1238329E6,4.6941797E3,4.0525781E3,7.6421484E4,6.1489453E3,9.9609375E0,1.1183695E6,5.4633984E3,4.6633594E3,3.0820312E1,1.4273438E2,3.9098438E3,2.4621094E2,7.617527E4,6.6796875E0,3.28125E0],"tree_param":{"num_deleted":"0","num_feature":"70","num_nodes":"37","size_leaf_vector":"1"}},{"base_weights":[-4.3155396E-1,-5.1098096E-1,5.18086E0,-1.5999988E-1,1.7086016E0,-1.5983546E-1,5.5274386E0,2.5155098E0,-1.599495E-1,1.3480759E0,2.3599012E0,4.3796926E0,1.5356809E0,1.815666E0,5.947835E0,2.2524056E0,3.948738E-1,1.0160056E0,1.11261584E-1,1.9646862E0,1.3013234E0,7.1618664E-1,3.5362348E-1],"categories":[],"categories_nodes":[],"categories_segments":[],"categories_sizes":[],"default_left":[0,0,0,0,0,0,0,0,0,0,0,0,0,0,0,0,0,0,0,0,0,0,0],"id":11,"left_children":[1,3,5,-1,7,-1,9,11,-1,-1,-1,13,15,17,19,21,-1,-1,-1,-1,-1,-1,-1],"loss_changes":[5.4264075E5,5.9550062E4,3.364053E4,0E0,2.1648688E4,0E0,3.869103E4,1.6067008E4,0E0,0E0,0E0,1.2177059E4,9.0445703E2,2.613056E3,1.7915938E3,1.9283594E2,0E0,0E0,0E0,0E0,0E0,0E0,0E0],"parents":[2147483647,0,0,1,1,2,2,4,4,6,6,7,7,11,11,12,12,13,13,14,14,15,15],"right_children":[2,4,6,-1,8,-1,10,12,-1,-1,-1,14,16,18,20,22,-1,-1,-1,-1,-1,-1,-1],"split_conditions":[5E5,4E1,3.6E1,-1.5999988E-1,5.7E1,-1.5983546E-1,1E6,1.6666667E5,-1.599495E-1,1.3480759E0,2.3599012E0,5E4,3.3333334E5,4.5454547E4,6.6666664E4,6E0,3.948738E-1,1.0160056E0,1.11261584E-1,1.9646862E0,1.3013234E0,7.1618664E-1,3.5362348E-1],"split_indices":[15,43,43,0,23,0,15,15,0,0,0,15,15,15,15,23,0,0,0,0,0,0,0],"split_type":[0,0,0,0,0,0,0,0,0,0,0,0,0,0,0,0,0,0,0,0,0,0,0],"sum_hessian":[1.2172842E6,1.2002985E6,1.6985742E4,1.1883324E6,1.1966133E4,9.713672E2,1.6014375E4,8.798906E3,3.1672266E3,1.11075E4,4.906875E3,3.0302344E3,5.768672E3,1.1507812E3,1.8794531E3,1.35E3,4.418672E3,5.5066406E2,6.001172E2,1.3662891E3,5.1316406E2,1.1982422E3,1.5175781E2],"tree_param":{"num_deleted":"0","num_feature":"70","num_nodes":"23","size_leaf_vector":"1"}},{"base_weights":[-4.4822723E-1,6.0034018E-2,-4.818595E-1,-4.8231876E-1,2.1894207E0,-4.3376923E-1,-5.036081E-1,-4.767089E-1,7.023717E0,-5.2234644E-1,-4.9268252E-1,-4.7801068E-1,-3.732449E-1,7.336186E0,-2.9972905E-1,-5.239517E-1,-4.649924E-2,-4.8556E-1,-5.250201E-1,-1.4370078E-1,-1.04042165E-1,-8.802527E-2,-1.5580621E-1,2.0754848E0,2.2579362E0,-3.7297565E-2,-1.5565918E-1,1.1735684E0,-1.5721695E-1,1.5182842E0,-1.5228963E-1,-1.4851408E-1,-1.3772328E-1,-1.5951298E-1,-1.4229867E-1],"categories":[],"categories_nodes":[],"categories_segments":[],"categories_sizes":[],"default_left":[0,0,0,0,0,0,0,0,0,0,0,0,0,0,0,0,0,0,0,0,0,0,0,0,0,0,0,0,0,0,0,0,0,0,0],"id":12,"left_children":[1,-1,3,5,-1,7,9,11,13,15,17,19,21,23,25,27,29,31,33,-1,-1,-1,-1,-1,-1,-1,-1,-1,-1,-1,-1,-1,-1,-1,-1],"loss_changes":[2.6547344E4,0E0,4.1390625E3,1.196E3,0E0,1.129819E5,1.6446875E2,4.70625E1,4.6244453E3,2.2632812E2,1.1678906E2,4.4921875E1,5.0740356E1,1.0197656E2,3.1494942E0,1.3930469E2,2.351487E3,1.04421875E2,3.0851562E1,0E0,0E0,0E0,0E0,0E0,0E0,0E0,0E0,0E0,0E0,0E0,0E0,0E0,0E0,0E0,0E0],"parents":[2147483647,0,0,2,2,3,3,5,5,6,6,7,7,8,8,9,9,10,10,11,11,12,12,13,13,14,14,15,15,16,16,17,17,18,18],"right_children":[2,-1,4,6,-1,8,10,12,14,16,18,20,22,24,26,28,30,32,34,-1,-1,-1,-1,-1,-1,-1,-1,-1,-1,-1,-1,-1,-1,-1,-1],"split_conditions":[1E0,6.0034018E-2,1E0,3.2E1,2.1894207E0,2.4E1,4.43E2,5.3472E4,1.026E3,2.992303E6,7.25E2,1.13E8,5.4773E4,1.43E2,6.2E1,2.1E1,3.963904E6,1E0,2.008398E7,-1.4370078E-1,-1.04042165E-1,-8.802527E-2,-1.5580621E-1,2.0754848E0,2.2579362E0,-3.7297565E-2,-1.5565918E-1,1.1735684E0,-1.5721695E-1,1.5182842E0,-1.5228963E-1,-1.4851408E-1,-1.3772328E-1,-1.5951298E-1,-1.4229867E-1],"split_indices":[64,0,17,30,0,43,19,19,50,2,37,35,19,26,26,19,31,20,10,0,0,0,0,0,0,0,0,0,0,0,0,0,0,0,0],"split_type":[0,0,0,0,0,0,0,0,0,0,0,0,0,0,0,0,0,0,0,0,0,0,0,0,0,0,0,0,0,0,0,0,0,0,0],"sum_hessian":[1.2174736E6,6.00409E4,1.1574328E6,1.1573652E6,6.738281E1,3.528122E5,8.045531E5,3.5079328E5,2.0189062E3,2.9631025E5,5.0824288E5,3.4643088E5,4.362422E3,1.9362891E3,8.261719E1,2.953139E5,9.963281E2,4.165186E5,9.17243E4,3.438288E5,2.6020312E3,2.8230469E3,1.539375E3,6.1746094E2,1.3188281E3,4.6757812E1,3.5859375E1,6.09375E0,2.953078E5,8.167969E1,9.1464844E2,3.0664888E5,1.0986973E5,8.102215E4,1.0702148E4],"tree_param":{"num_deleted":"0","num_feature":"70","num_nodes":"35","size_leaf_vector":"1"}},{"base_weights":[-5.3330004E-1],"categories":[],"categories_nodes":[],"categories_segments":[],"categories_sizes":[],"default_left":[0],"id":13,"left_children":[-1],"loss_changes":[0E0],"parents":[2147483647],"right_children":[-1],"split_conditions":[-1.5999001E-1],"split_indices":[0],"split_type":[0],"sum_hessian":[1.2172654E6],"tree_param":{"num_deleted":"0","num_feature":"70","num_nodes":"1","size_leaf_vector":"1"}},{"base_weights":[-5.332918E-1],"categories":[],"categories_nodes":[],"categories_segments":[],"categories_sizes":[],"default_left":[0],"id":14,"left_children":[-1],"loss_changes":[0E0],"parents":[2147483647],"right_children":[-1],"split_conditions":[-1.5998755E-1],"split_indices":[0],"split_type":[0],"sum_hessian":[1.2174208E6],"tree_param":{"num_deleted":"0","num_feature":"70","num_nodes":"1","size_leaf_vector":"1"}},{"base_weights":[-4.3495595E-1,-4.833604E-1,3.567532E0,-5.310107E-1,1.3041986E0,2.3996568E0,-1.5997882E-1,-5.328395E-1,-3.1930786E-1,6.6015687E0,-1.5978608E-1,-5.331213E-1,-4.3677643E-1,-1.5998201E-1,1.3434197E0,2.399643E0,-1.5987857E-1,-1.5999694E-1,-5.2526164E-1,-1.5993568E-1,-1.7490177E-1,-1.5948464E-1,2.3881292E0,1.4560201E0,-1.5999448E-1,-1.598178E-1,2.3391442E0],"categories":[],"categories_nodes":[],"categories_segments":[],"categories_sizes":[],"default_left":[0,0,0,0,0,0,0,0,0,0,0,0,0,0,0,0,0,0,0,0,0,0,0,0,0,0,0],"id":15,"left_children":[1,3,5,7,9,-1,-1,11,13,15,-1,17,19,-1,21,-1,-1,-1,23,-1,25,-1,-1,-1,-1,-1,-1],"loss_changes":[2.3579347E5,1.0242875E5,2.6427738E5,4.5328125E2,3.038144E5,0E0,0E0,3.11875E1,3.570478E3,8.0142E4,0E0,1.53125E0,8.5750244E1,0E0,1.4201476E4,0E0,0E0,0E0,1.2611909E3,0E0,2.6187998E3,0E0,0E0,0E0,0E0,0E0,0E0],"parents":[2147483647,0,0,1,1,2,2,3,3,4,4,7,7,8,8,9,9,11,11,12,12,14,14,18,18,20,20],"right_children":[2,4,6,8,10,-1,-1,12,14,16,-1,18,20,-1,22,-1,-1,-1,24,-1,26,-1,-1,-1,-1,-1,-1],"split_conditions":[1.6E1,1.25E5,5.3E1,5.5555555E4,2.46E2,2.3996568E0,-1.5997882E-1,5E4,3.2E1,5.3E1,-1.5978608E-1,1E0,3.2E1,-1.5998201E-1,2.3E2,2.399643E0,-1.5987857E-1,-1.5999694E-1,5.3E1,-1.5993568E-1,2.3E2,-1.5948464E-1,2.3881292E0,1.4560201E0,-1.5999448E-1,-1.598178E-1,2.3391442E0],"split_indices":[29,15,19,15,50,0,0,15,43,19,0,69,43,0,49,0,0,0,19,0,49,0,0,0,0,0,0],"split_type":[0,0,0,0,0,0,0,0,0,0,0,0,0,0,0,0,0,0,0,0,0,0,0,0,0,0,0],"sum_hessian":[1.2170626E6,1.2025208E6,1.4541914E4,1.1712985E6,3.1222148E4,6.988828E3,7.553086E3,1.1612655E6,1.0033008E4,8.038008E3,2.318414E4,1.157864E6,3.4014844E3,8.889727E3,1.1432812E3,6.7215234E3,1.3164844E3,1.1288089E6,2.9055234E4,2.4858984E3,9.1558594E2,8.915625E2,2.5171875E2,4.2539062E1,2.9012695E4,8.7714844E2,3.84375E1],"tree_param":{"num_deleted":"0","num_feature":"70","num_nodes":"27","size_leaf_vector":"1"}},{"base_weights":[1.0420265E0,1.0486526E0,-2.4533997E-1,1.0589402E0,8.336359E-1,9.839665E-1,-5.229551E-1,1.0692885E0,9.216583E-1,-3.878756E-1,1.0698926E0,1.0753481E0,4.515925E-1,-1.5696214E-1,-3.8615996E-1,1.077591E0,8.44745E-1,-2.5142616E-1,1.0845141E0,-4.8210135E-1,9.9013746E-1,-1.0763592E-1,1.0800337E0,3.414979E0,3.2146445E-1,-5.243348E-1,6.527871E-1,6.1924374E-1,-1.5369016E-1,1.0669724E0,1.1530044E0,7.047243E-2,1.08161E0,6.9482236E0,-3.9971086E-1,1.1137635E0,1.0825326E0,-5.005874E-1,2.3550968E0,2.0775297E0,4.2024003E-3,-1.690401E-1,3.1908163E-1,1.0814296E0,8.673768E-1,2.179109E-1,1.2635639E0,4.963781E-1,-5.609032E-1,1.7760709E-1,6.805856E-1,3.2178605E-1,2.8288022E-1,3.2409087E-1,6.852023E-1,-1.1634673E-1,3.2290825E-1,3.2401156E-1,4.4643945E-1,-6.9679916E-2,2.2568626E0,-1.4223412E-1,4.9133387E-1,3.2482883E-1,3.7085605E-1,3.2476845E-1,-2.168425E-1,-1.5159714E-1,5.124001E-1,2.0687099E0,6.222165E-1,2.0619323E0,3.3914942E-1,-1.1597576E-1,3.2503736E-1,-1.6987865E-1,3.86848E-3,3.256647E-1,3.0705285E-1,-2.5193754E-1,3.2162786E-1,2.4737068E-1,-8.0799654E-2,-1.9251853E-1,-1.4078963E-1,1.9878067E-1,2.6457295E-1],"categories":[],"categories_nodes":[],"categories_segments":[],"categories_sizes":[],"default_left":[0,0,0,0,0,0,0,0,0,0,0,0,0,0,0,0,0,0,0,0,0,0,0,0,0,0,0,0,0,0,0,0,0,0,0,0,0,0,0,0,0,0,0,0,0,0,0,0,0,0,0,0,0,0,0,0,0,0,0,0,0,0,0,0,0,0,0,0,0,0,0,0,0,0,0,0,0,0,0,0,0,0,0,0,0,0,0],"id":16,"left_children":[1,3,5,7,9,11,13,15,17,19,21,23,25,-1,27,29,31,33,35,37,39,41,43,45,-1,47,49,-1,-1,51,53,55,57,59,61,63,65,67,69,71,73,75,-1,77,79,-1,-1,81,83,-1,85,-1,-1,-1,-1,-1,-1,-1,-1,-1,-1,-1,-1,-1,-1,-1,-1,-1,-1,-1,-1,-1,-1,-1,-1,-1,-1,-1,-1,-1,-1,-1,-1,-1,-1,-1,-1],"loss_changes":[3.78305E4,9.758E3,7.75088E3,5.981E3,5.8139953E4,2.0307031E2,4.3652344E-1,7.299E3,5.6387766E4,4.2400127E3,2.0159062E3,2.8084473E1,1.2104171E2,0E0,1.276627E1,3.022E3,2.5604883E4,3.841627E4,1.38125E1,1.6041035E3,2.24072E3,1.0390903E2,4.875E1,8.365784E0,0E0,4.2208366E0,4.5869446E-1,0E0,0E0,2.3175E3,3.8316375E4,1.5077901E4,6.66875E1,2.9981406E3,5.345423E3,6.0935547E1,1.34375E1,3.1850342E2,2.3838477E2,4.506002E3,4.6315732E2,9.91106E1,0E0,3.859375E1,3.8412036E2,0E0,0E0,1.273436E0,4.5728302E-1,0E0,6.585541E-1,0E0,0E0,0E0,0E0,0E0,0E0,0E0,0E0,0E0,0E0,0E0,0E0,0E0,0E0,0E0,0E0,0E0,0E0,0E0,0E0,0E0,0E0,0E0,0E0,0E0,0E0,0E0,0E0,0E0,0E0,0E0,0E0,0E0,0E0,0E0,0E0],"parents":[2147483647,0,0,1,1,2,2,3,3,4,4,5,5,6,6,7,7,8,8,9,9,10,10,11,11,12,12,14,14,15,15,16,16,17,17,18,18,19,19,20,20,21,21,22,22,23,23,25,25,26,26,29,29,30,30,31,31,32,32,33,33,34,34,35,35,36,36,37,37,38,38,39,39,40,40,41,41,43,43,44,44,47,47,48,48,50,50],"right_children":[2,4,6,8,10,12,14,16,18,20,22,24,26,-1,28,30,32,34,36,38,40,42,44,46,-1,48,50,-1,-1,52,54,56,58,60,62,64,66,68,70,72,74,76,-1,78,80,-1,-1,82,84,-1,86,-1,-1,-1,-1,-1,-1,-1,-1,-1,-1,-1,-1,-1,-1,-1,-1,-1,-1,-1,-1,-1,-1,-1,-1,-1,-1,-1,-1,-1,-1,-1,-1,-1,-1,-1,-1],"split_conditions":[1.6666667E5,2.4E1,2.8E1,3.2738E4,4.43E2,2.4E1,5.3E1,1.839065E6,4.43E2,2.39998E5,2.8E1,4.43E2,3.3333334E5,-1.5696214E-1,1E0,1.5384615E4,4.603596E7,3.71E2,4.45E2,2.92E4,5.3E1,1.026E3,3.0016E4,1.6E1,3.2146445E-1,4.45E2,1.548E3,6.1924374E-1,-1.5369016E-1,8.08E3,2.238E3,4.43E2,9.51E7,3.4902E4,6.3358E4,2.22E2,6.995315E2,1E0,3.3E1,3.385406E6,1.3830231E6,2.22E2,3.1908163E-1,1E0,3.4902E4,2.179109E-1,1.2635639E0,5E0,5E0,1.7760709E-1,1E6,3.2178605E-1,2.8288022E-1,3.2409087E-1,6.852023E-1,-1.1634673E-1,3.2290825E-1,3.2401156E-1,4.4643945E-1,-6.9679916E-2,2.2568626E0,-1.4223412E-1,4.9133387E-1,3.2482883E-1,3.7085605E-1,3.2476845E-1,-2.168425E-1,-1.5159714E-1,5.124001E-1,2.0687099E0,6.222165E-1,2.0619323E0,3.3914942E-1,-1.1597576E-1,3.2503736E-1,-1.6987865E-1,3.86848E-3,3.256647E-1,3.0705285E-1,-2.5193754E-1,3.2162786E-1,2.4737068E-1,-8.0799654E-2,-1.9251853E-1,-1.4078963E-1,1.9878067E-1,2.6457295E-1],"split_indices":[15,43,30,50,19,30,19,26,19,26,30,19,15,0,0,28,23,23,19,50,19,50,50,5,0,19,19,0,0,19,50,19,45,50,23,26,55,20,23,31,27,23,0,20,50,0,0,26,26,0,15,0,0,0,0,0,0,0,0,0,0,0,0,0,0,0,0,0,0,0,0,0,0,0,0,0,0,0,0,0,0,0,0,0,0,0,0],"split_type":[0,0,0,0,0,0,0,0,0,0,0,0,0,0,0,0,0,0,0,0,0,0,0,0,0,0,0,0,0,0,0,0,0,0,0,0,0,0,0,0,0,0,0,0,0,0,0,0,0,0,0,0,0,0,0,0,0,0,0,0,0,0,0,0,0,0,0,0,0,0,0,0,0,0,0,0,0,0,0,0,0,0,0,0,0,0,0],"sum_hessian":[4.4347545E6,4.4120455E6,2.270909E4,4.210586E6,2.0145945E5,4.1831514E3,1.852594E4,3.915432E6,2.9515394E5,3.264991E4,1.6880955E5,3.5694395E3,6.1371173E2,1.8489057E4,3.6882423E1,3.7758188E6,1.3961311E5,3.598024E4,2.591737E5,3.056087E4,2.0890403E3,1.4413042E3,1.6736825E5,4.3325E0,3.565107E3,1.0462157E2,5.0909018E2,1.0535299E0,3.5828896E1,3.3098002E6,4.6601853E5,3.2705504E4,1.069076E5,7.2517236E2,3.5255066E4,1.6408055E4,2.4276564E5,3.0363855E4,1.9701498E2,9.928807E2,1.0961597E3,1.3703188E3,7.098545E1,1.6627272E5,1.0955289E3,1.4275792E0,2.9049206E0,3.1836724E0,1.0143789E2,1.6679608E2,3.422941E2,3.1656552E6,1.441452E5,4.378737E5,2.8144844E4,2.246898E4,1.0236523E4,1.0649957E5,4.0803238E2,5.3779026E1,6.713933E2,3.4013758E4,1.2413098E3,1.3100517E4,3.3075378E3,2.4276216E5,3.480465E0,3.0299646E4,6.420768E1,1.0111654E1,1.8690334E2,1.6270709E2,8.3017365E2,8.052339E2,2.909258E2,4.2980508E2,9.4051373E2,1.5521564E5,1.1057067E4,1.1697209E2,9.785568E2,2.174705E0,1.0089674E0,5.069917E1,5.0738724E1,3.1816498E2,2.412912E1],"tree_param":{"num_deleted":"0","num_feature":"70","num_nodes":"87","size_leaf_vector":"1"}},{"base_weights":[-3.3669817E-1,-5.0561243E-1,1.6626212E-1,-9.803919E-2,-5.188069E-1,1.0729154E0,-4.999985E-1,-5.028341E-1,-5.190943E-1,1.0794173E0,-1.5518275E-1,-5.1767236E-1,-1.1635184E-1,6.133502E-1,-5.112788E-1,-1.5695201E-1,-1.5565255E-1,-1.5495743E-1,1.0829308E0,-5.1795983E-1,-2.5138894E-1,3.255294E-1,-1.5553778E-1,-2.9485163E-1,2.3711448E0,-5.1731646E-1,-3.5613126E-1,1.7413089E-1,1.0833007E0,-1.5548885E-1,-4.770204E-1,1.498056E0,-1.5469918E-1,3.8537182E-2,-1.517787E-1,7.894412E-1,-1.0628485E-1,-1.4189796E-1,-1.5560022E-1,-1.451582E-1,4.8978713E-1,-1.2878254E-1,4.581403E-1,3.2480294E-1,3.9441103E-1,5.966762E-1,-1.5543275E-1,5.0248456E-1,-8.8597804E-2],"categories":[],"categories_nodes":[],"categories_segments":[],"categories_sizes":[],"default_left":[0,0,0,0,0,0,0,0,0,0,0,0,0,0,0,0,0,0,0,0,0,0,0,0,0,0,0,0,0,0,0,0,0,0,0,0,0,0,0,0,0,0,0,0,0,0,0,0,0],"id":17,"left_children":[1,3,5,-1,7,9,11,13,15,17,-1,19,21,23,25,-1,-1,-1,27,29,31,-1,-1,33,35,37,39,41,43,-1,45,47,-1,-1,-1,-1,-1,-1,-1,-1,-1,-1,-1,-1,-1,-1,-1,-1,-1],"loss_changes":[6.882955E4,1.43075E3,1.23038586E5,0E0,2.34375E0,8.9259375E2,7.960176E2,9.470776E1,2.96875E-1,4.82375E2,0E0,8.4609375E0,2.4991191E3,1.2147137E2,9.126221E0,0E0,0E0,0E0,2.8640625E1,1.296875E0,5.7625248E1,0E0,0E0,4.6012697E0,1.9295609E1,3.2739258E-1,9.618208E1,3.0112318E1,1.096875E1,0E0,9.486078E1,5.695465E0,0E0,0E0,0E0,0E0,0E0,0E0,0E0,0E0,0E0,0E0,0E0,0E0,0E0,0E0,0E0,0E0,0E0],"parents":[2147483647,0,0,1,1,2,2,4,4,5,5,6,6,7,7,8,8,9,9,11,11,12,12,13,13,14,14,18,18,19,19,20,20,23,23,24,24,25,25,26,26,27,27,28,28,30,30,31,31],"right_children":[2,4,6,-1,8,10,12,14,16,18,-1,20,22,24,26,-1,-1,-1,28,30,32,-1,-1,34,36,38,40,42,44,-1,46,48,-1,-1,-1,-1,-1,-1,-1,-1,-1,-1,-1,-1,-1,-1,-1,-1,-1],"split_conditions":[8.08E3,1E0,9.457E3,-9.803919E-2,8E0,1.0227E4,2.2980971E2,3E1,8E1,3.57E2,-1.5518275E-1,1.2E1,1E2,2.83E7,5.5089135E6,-1.5695201E-1,-1.5565255E-1,-1.5495743E-1,3.264631E1,4.9630212E5,1.175E1,3.255294E-1,-1.5553778E-1,4.3572E4,3.15E7,2.779E3,2.7E1,4.88869E5,4.7393364E3,-1.5548885E-1,5.26789E5,1E0,-1.5469918E-1,3.8537182E-2,-1.517787E-1,7.894412E-1,-1.0628485E-1,-1.4189796E-1,-1.5560022E-1,-1.451582E-1,4.8978713E-1,-1.2878254E-1,4.581403E-1,3.2480294E-1,3.9441103E-1,5.966762E-1,-1.5543275E-1,5.0248456E-1,-8.8597804E-2],"split_indices":[19,64,19,0,30,50,14,26,23,23,0,64,57,47,34,0,0,0,28,7,53,0,0,23,47,25,64,7,41,0,10,0,0,0,0,0,0,0,0,0,0,0,0,0,0,0,0,0,0],"split_type":[0,0,0,0,0,0,0,0,0,0,0,0,0,0,0,0,0,0,0,0,0,0,0,0,0,0,0,0,0,0,0,0,0,0,0,0,0,0,0,0,0,0,0,0,0,0,0,0,0],"sum_hessian":[8.101657E5,6.06484E5,2.0368166E5,4.167804E4,5.6480594E5,8.627596E4,1.1740569E5,1.0013315E4,5.547926E5,8.592495E4,3.5100464E2,1.1223489E5,5.170797E3,7.465134E1,9.938664E3,3.221412E4,5.2257853E5,1.8842873E2,8.573652E4,1.1211292E5,1.2196886E2,1.2962012E3,3.8745957E3,4.9769253E1,2.4882082E1,9.564138E3,3.7452625E2,3.5080822E1,8.5701445E4,1.1118787E5,9.250576E2,1.5394164E1,1.0657469E2,1.6689804E1,3.307945E1,2.2744099E1,2.1379845E0,2.932718E2,9.270866E3,3.526347E2,2.1891552E1,2.4733168E1,1.0347655E1,8.547649E4,2.2495108E2,1.43841915E1,9.1067346E2,1.4072177E1,1.3219867E0],"tree_param":{"num_deleted":"0","num_feature":"70","num_nodes":"49","size_leaf_vector":"1"}},{"base_weights":[-5.1859015E-1,-5.1871157E-1,-2.7765134E-1,-5.1882607E-1,-4.729553E-1,-1.5583494E-1,1.0098175E0,-1.5636317E-1,-1.5557535E-1,7.57465E-2,-1.551646E-1,1.7817104E0,-1.4851919E-1,-5.3975012E-2,4.8898387E-1,5.4679203E-1,5.354322E-2,-1.0250552E-1,-9.434167E-3,2.3375954E-1,1.3206105E-1,-1.268064E-1,4.8040445E-3],"categories":[],"categories_nodes":[],"categories_segments":[],"categories_sizes":[],"default_left":[0,0,0,0,0,0,0,0,0,0,0,0,0,0,0,0,0,0,0,0,0,0,0],"id":18,"left_children":[1,3,5,7,9,-1,11,-1,-1,13,-1,15,-1,17,19,-1,-1,-1,21,-1,-1,-1,-1],"loss_changes":[2.1328125E1,3.59375E0,1.1622772E2,1.71875E-1,4.4757965E1,0E0,6.953948E1,0E0,0E0,7.4409585E0,0E0,2.2525406E0,0E0,1.3573432E0,1.2622643E-1,0E0,0E0,0E0,9.8443514E-1,0E0,0E0,0E0,0E0],"parents":[2147483647,0,0,1,1,2,2,3,3,4,4,6,6,9,9,11,11,13,13,14,14,18,18],"right_children":[2,4,6,8,10,-1,12,-1,-1,14,-1,16,-1,18,20,-1,-1,-1,22,-1,-1,-1,-1],"split_conditions":[5.2E1,3.024E2,3.024E2,6E0,6.713522E-2,-1.5583494E-1,6.61E2,-1.5636317E-1,-1.5557535E-1,4.000353E6,-1.551646E-1,2.349593E6,-1.4851919E-1,2.1369766E7,2.1369766E7,5.4679203E-1,5.354322E-2,-1.0250552E-1,5E0,2.3375954E-1,1.3206105E-1,-1.268064E-1,4.8040445E-3],"split_indices":[29,38,38,24,28,0,37,0,0,2,0,24,0,46,46,0,0,0,29,0,0,0,0],"split_type":[0,0,0,0,0,0,0,0,0,0,0,0,0,0,0,0,0,0,0,0,0,0,0],"sum_hessian":[7.336316E5,7.3326094E5,3.706679E2,7.3142056E5,1.8403712E3,3.1256238E2,5.8105534E1,6.709337E4,6.643272E5,1.3731654E2,1.7030547E3,3.8284477E1,1.9821056E1,1.0517111E2,3.214543E1,3.719798E1,1.0864954E0,1.3204678E1,9.196644E1,2.4709764E0,2.9674454E1,4.4291835E0,8.7537254E1],"tree_param":{"num_deleted":"0","num_feature":"70","num_nodes":"23","size_leaf_vector":"1"}},{"base_weights":[-5.1893824E-1,-5.190231E-1,-3.430086E-1,-1.5639763E-1,-1.5563641E-1,-1.5572223E-1,1.3149505E0,5.45084E-1,-1.3716444E-1],"categories":[],"categories_nodes":[],"categories_segments":[],"categories_sizes":[],"default_left":[0,0,0,0,0,0,0,0,0],"id":19,"left_children":[1,3,5,-1,-1,-1,7,-1,-1],"loss_changes":[1.078125E1,1.25E-1,1.0479134E2,0E0,0E0,0E0,3.154134E1,0E0,0E0],"parents":[2147483647,0,0,1,1,2,2,6,6],"right_children":[2,4,6,-1,-1,-1,8,-1,-1],"split_conditions":[5.2E1,2.2E1,6.995315E2,-1.5639763E-1,-1.5563641E-1,-1.5572223E-1,4.43E2,5.45084E-1,-1.3716444E-1],"split_indices":[29,19,55,0,0,0,19,0,0],"split_type":[0,0,0,0,0,0,0,0,0],"sum_hessian":[7.33664E5,7.333083E5,3.556476E2,6.77289E4,6.6557944E5,3.221266E2,3.352103E1,2.610194E1,7.419089E0],"tree_param":{"num_deleted":"0","num_feature":"70","num_nodes":"9","size_leaf_vector":"1"}},{"base_weights":[-1.2492262E-1,-3.4695393E-1,3.5906756E-1,-4.7777018E-1,2.4889281E-1,-1.5563175E-1,6.811514E-1,-5.152531E-1,-1.5643202E-1,1.18964E0,-5.2317375E-1,1.0190743E0,-4.7779337E-1,-5.187817E-1,-3.808431E-1,-1.5560389E-1,5.1721627E-1,1.2165049E0,-1.580013E-1,-6.3507265E-1,-5.1915365E-1,1.0997591E0,-1.5557607E-1,1.4290081E-1,-5.099963E-1,-5.194619E-1,-4.6591955E-1,-1.3558461E-1,-1.5559962E-1,7.6927155E-1,-1.5579754E-1,1.2105488E0,4.6844673E0,-5.33393E-1,-6.6538113E-1,-5.380624E-1,-1.5564173E-1,1.1132257E0,-1.5548189E-1,1.5768172E0,-1.5607728E-1,-2.2598954E-1,-5.172948E-1,-1.5601444E-1,-1.5140514E-1,4.283179E-2,-1.5558615E-1,2.6344332E-1,-1.5562126E-1,2.6833582E-1,-1.5549694E-1,7.37333E-1,3.592294E-1,1.199785E0,1.8169616E0,-1.7201585E-1,-1.5521483E-1,-1.8487372E-1,-2.0789786E-1,-2.0175461E-1,-1.5547326E-1,3.360528E-1,-1.5545338E-1,5.622711E-1,-1.7035267E-1,9.054822E-1,-1.5549845E-1,-1.2660126E-1,-1.5546234E-1],"categories":[],"categories_nodes":[],"categories_segments":[],"categories_sizes":[],"default_left":[0,0,0,0,0,0,0,0,0,0,0,0,0,0,0,0,0,0,0,0,0,0,0,0,0,0,0,0,0,0,0,0,0,0,0,0,0,0,0,0,0,0,0,0,0,0,0,0,0,0,0,0,0,0,0,0,0,0,0,0,0,0,0,0,0,0,0,0,0],"id":20,"left_children":[1,3,5,7,9,-1,11,13,15,17,19,21,23,25,27,-1,29,31,-1,33,35,37,-1,39,41,43,45,47,-1,49,-1,51,53,55,57,59,-1,61,-1,63,-1,65,67,-1,-1,-1,-1,-1,-1,-1,-1,-1,-1,-1,-1,-1,-1,-1,-1,-1,-1,-1,-1,-1,-1,-1,-1,-1,-1],"loss_changes":[9.94479E4,4.944935E4,8.22863E4,6.265492E3,8.29517E4,0E0,8.33848E4,2.2073438E2,1.326111E4,2.3743281E3,2.7888672E1,2.0452594E4,9.608379E2,1.6078125E1,4.0287354E2,0E0,4.96536E3,1.0413359E3,0E0,6.335449E0,1.2011719E-1,3.4134375E3,0E0,2.2559893E3,9.4603516E1,3.625E0,1.8537E2,1.6667848E3,0E0,2.464416E3,0E0,8.249297E2,5.7153687E1,2.5787354E-2,1.8364868E0,2.4950562E0,0E0,1.7619062E3,0E0,4.7959875E2,0E0,1.0890952E3,3.6572266E0,0E0,0E0,0E0,0E0,0E0,0E0,0E0,0E0,0E0,0E0,0E0,0E0,0E0,0E0,0E0,0E0,0E0,0E0,0E0,0E0,0E0,0E0,0E0,0E0,0E0,0E0],"parents":[2147483647,0,0,1,1,2,2,3,3,4,4,6,6,7,7,8,8,9,9,10,10,11,11,12,12,13,13,14,14,16,16,17,17,19,19,20,20,21,21,23,23,24,24,25,25,26,26,27,27,29,29,31,31,32,32,33,33,34,34,35,35,37,37,39,39,41,41,42,42],"right_children":[2,4,6,8,10,-1,12,14,16,18,20,22,24,26,28,-1,30,32,-1,34,36,38,-1,40,42,44,46,48,-1,50,-1,52,54,56,58,60,-1,62,-1,64,-1,66,68,-1,-1,-1,-1,-1,-1,-1,-1,-1,-1,-1,-1,-1,-1,-1,-1,-1,-1,-1,-1,-1,-1,-1,-1,-1,-1],"split_conditions":[1.112E3,4.675E2,1E0,5.07E2,9.64E2,-1.5563175E-1,3.4542E4,4.36E2,1E0,8E1,2.6992E4,4.8E1,4.9167E4,4.02E2,1E0,-1.5560389E-1,4.43E2,4.5346E4,-1.580013E-1,1.048E2,3.6609E4,4.43E2,-1.5557607E-1,4.8E1,6.2182E4,3.3E2,1E0,4.43E2,-1.5559962E-1,4.8E1,-1.5579754E-1,4.81E2,1.45376E2,9.6E1,5.906636E3,9.6E1,-1.5564173E-1,8E0,-1.5548189E-1,4.43E2,-1.5607728E-1,4.8E1,6.9835E4,-1.5601444E-1,-1.5140514E-1,4.283179E-2,-1.5558615E-1,2.6344332E-1,-1.5562126E-1,2.6833582E-1,-1.5549694E-1,7.37333E-1,3.592294E-1,1.199785E0,1.8169616E0,-1.7201585E-1,-1.5521483E-1,-1.8487372E-1,-2.0789786E-1,-2.0175461E-1,-1.5547326E-1,3.360528E-1,-1.5545338E-1,5.622711E-1,-1.7035267E-1,9.054822E-1,-1.5549845E-1,-1.2660126E-1,-1.5546234E-1],"split_indices":[26,14,0,26,61,0,35,26,0,30,10,30,35,26,62,0,19,10,0,38,10,19,0,30,35,26,62,19,0,30,0,31,28,30,9,30,0,5,0,19,0,30,35,0,0,0,0,0,0,0,0,0,0,0,0,0,0,0,0,0,0,0,0,0,0,0,0,0,0],"split_type":[0,0,0,0,0,0,0,0,0,0,0,0,0,0,0,0,0,0,0,0,0,0,0,0,0,0,0,0,0,0,0,0,0,0,0,0,0,0,0,0,0,0,0,0,0,0,0,0,0,0,0,0,0,0,0,0,0,0,0,0,0,0,0,0,0,0,0,0,0],"sum_hessian":[9.2543044E5,6.3439906E5,2.9103138E5,5.2019262E5,1.1420643E5,7.811855E4,2.1291283E5,4.6585203E5,5.4340598E4,5.147935E4,6.2727074E4,1.6484714E5,4.8065695E4,4.5393238E5,1.1919673E4,3.5338113E4,1.9002484E4,5.0686266E4,7.930863E2,2.169959E3,6.0557117E4,1.5662873E5,8.2184E3,2.370581E3,4.5695117E4,4.4815706E5,5.7752983E3,4.2890947E3,7.6305776E3,1.5285721E4,3.716764E3,5.0600707E4,8.5558426E1,5.0255923E2,1.6673998E3,1.0661736E3,5.949094E4,1.5533622E5,1.2925249E3,7.492137E2,1.6213673E3,1.1456722E3,4.4549445E4,4.310242E5,1.7132873E4,4.600498E2,5.3152485E3,1.1761082E3,3.1129868E3,1.3931585E4,1.3541357E3,5.247076E2,5.0076E4,5.9673492E1,2.5884935E1,1.3371962E2,3.688396E2,6.082777E2,1.059122E3,1.3273354E2,9.3344006E2,1.5467755E5,6.586597E2,6.58078E2,9.11357E1,9.393148E1,1.0517407E3,4.2715057E2,4.4122293E4],"tree_param":{"num_deleted":"0","num_feature":"70","num_nodes":"69","size_leaf_vector":"1"}},{"base_weights":[-5.178298E-1,-5.1913214E-1,9.037081E-1,-1.5639772E-1,-1.5567258E-1,1.0173E0,-1.5302955E-1,-2.8124782E-1,1.0285373E0,6.005118E-2,-1.2599641E-1,5.818594E-1,1.0078131E0,-4.257627E-1,1.028783E0,4.1196086E-2,-1.5894963E-1,3.1550694E-1,4.397834E-2],"categories":[],"categories_nodes":[],"categories_segments":[],"categories_sizes":[],"default_left":[0,0,0,0,0,0,0,0,0,0,0,0,0,0,0,0,0,0,0],"id":21,"left_children":[1,3,5,-1,-1,7,-1,9,11,-1,-1,-1,13,15,17,-1,-1,-1,-1],"loss_changes":[1.3590469E3,9.375E-2,1.0844989E2,0E0,0E0,9.371643E0,0E0,4.9318826E-1,9.699463E0,0E0,0E0,0E0,1.8644714E1,6.258608E-1,1.1914185E1,0E0,0E0,0E0,0E0],"parents":[2147483647,0,0,1,1,2,2,5,5,7,7,8,8,12,12,13,13,14,14],"right_children":[2,4,6,-1,-1,8,-1,10,12,-1,-1,-1,14,16,18,-1,-1,-1,-1],"split_conditions":[1.89E2,2.2E1,2.081E3,-1.5639772E-1,-1.5567258E-1,4.20173E5,-1.5302955E-1,3.5E1,6.3E2,6.005118E-2,-1.2599641E-1,5.818594E-1,6.0092184E7,2.15E7,4.2459875E4,4.1196086E-2,-1.5894963E-1,3.1550694E-1,4.397834E-2],"split_indices":[29,19,25,0,0,24,0,25,25,0,0,0,35,35,22,0,0,0,0],"split_type":[0,0,0,0,0,0,0,0,0,0,0,0,0,0,0,0,0,0,0],"sum_hessian":[7.338286E5,7.3315756E5,6.7106134E2,6.760023E4,6.655574E5,6.214144E2,4.9646908E1,5.125263E0,6.162891E2,1.0475539E0,4.077709E0,1.164864E1,6.046405E2,8.438687E0,5.9620184E2,1.2665143E0,7.1721725E0,5.809255E2,1.5276362E1],"tree_param":{"num_deleted":"0","num_feature":"70","num_nodes":"19","size_leaf_vector":"1"}},{"base_weights":[-1.8620671E-1,-4.7568977E-1,3.1690586E-1,-5.0031036E-1,8.4941554E-1,8.3632565E-1,-5.1784587E-1,-5.109318E-1,-1.7168382E-1,-1.5554287E-1,1.0784296E0,1.0399958E0,-3.743097E-1,1.967246E-1,-5.184321E-1,-5.1468074E-1,3.3869025E-1,3.2449827E-1,-1.5557703E-1,3.2438248E-1,-1.4639103E-1,1.0783417E0,-1.5557246E-1,-2.700012E-1,-1.5559599E-1,-1.5286493E-1,3.1749976E-1,-5.184718E-1,4.3205553E-1,-5.155822E-1,1.3291439E0,9.1167444E-1,-1.5547477E-1,1.0906936E0,-5.929806E-1,-4.6811602E-1,8.3439696E-1,-4.153308E-1,-5.1851E-1,-1.2546678E-1,6.6345996E-1,-1.553705E-1,-8.9881204E-2,1.1808057E0,3.5685867E-1,3.0370253E-1,-1.5395391E-1,-1.558024E-1,3.2941368E-1,-2.2456406E-1,-1.5777886E-1,1.2880346E-1,-1.4605017E-1,3.225056E-1,-1.5588056E-1,2.4298416E-1,-1.5237764E-1,-1.512389E-1,-1.556006E-1],"categories":[],"categories_nodes":[],"categories_segments":[],"categories_sizes":[],"default_left":[0,0,0,0,0,0,0,0,0,0,0,0,0,0,0,0,0,0,0,0,0,0,0,0,0,0,0,0,0,0,0,0,0,0,0,0,0,0,0,0,0,0,0,0,0,0,0,0,0,0,0,0,0,0,0,0,0,0,0],"id":22,"left_children":[1,3,5,7,9,11,13,15,17,-1,19,21,23,25,27,29,31,-1,-1,-1,-1,33,-1,35,-1,-1,-1,37,39,41,43,45,-1,47,49,51,53,55,57,-1,-1,-1,-1,-1,-1,-1,-1,-1,-1,-1,-1,-1,-1,-1,-1,-1,-1,-1,-1],"loss_changes":[1.2975867E5,1.845104E4,1.4109028E5,1.9379062E3,3.2323564E3,4.945936E4,5.2390625E1,1.7132969E3,7.5593535E3,0E0,3.9913086E1,1.0262297E4,4.347871E2,6.323986E1,4.9257812E0,8.9071875E2,1.160937E3,0E0,0E0,0E0,0E0,3.460125E3,0E0,3.6698462E3,0E0,0E0,0E0,2.7734375E-1,9.62702E0,2.6796875E2,9.065564E1,2.0373035E2,0E0,1.9696875E3,1.2436829E1,2.3909668E2,8.317637E2,6.2205935E0,2.34375E-2,0E0,0E0,0E0,0E0,0E0,0E0,0E0,0E0,0E0,0E0,0E0,0E0,0E0,0E0,0E0,0E0,0E0,0E0,0E0,0E0],"parents":[2147483647,0,0,1,1,2,2,3,3,4,4,5,5,6,6,7,7,8,8,10,10,11,11,12,12,13,13,14,14,15,15,16,16,21,21,23,23,27,27,28,28,29,29,30,30,31,31,33,33,34,34,35,35,36,36,37,37,38,38],"right_children":[2,4,6,8,10,12,14,16,18,-1,20,22,24,26,28,30,32,-1,-1,-1,-1,34,-1,36,-1,-1,-1,38,40,42,44,46,-1,48,50,52,54,56,58,-1,-1,-1,-1,-1,-1,-1,-1,-1,-1,-1,-1,-1,-1,-1,-1,-1,-1,-1,-1],"split_conditions":[9.69088E5,3.0984628E5,3.4655303E3,1.1552343E5,4.0745645E0,4.603596E7,1.2888E4,4.23991E5,1.234E2,-1.5554287E-1,1.2433E4,4.43E2,4.43E2,9.5821995E-1,5.9101654E2,1.89E2,1E0,3.2449827E-1,-1.5557703E-1,3.2438248E-1,-1.4639103E-1,2.4E1,-1.5557246E-1,6.11E7,-1.5559599E-1,-1.5286493E-1,3.1749976E-1,1.4558E4,1.327E3,9.8146E4,6.013051E7,4.43E2,-1.5547477E-1,2.8E1,1.808876E6,5.2432564E7,1E0,1.40347E6,2.3665E4,-1.2546678E-1,6.6345996E-1,-1.553705E-1,-8.9881204E-2,1.1808057E0,3.5685867E-1,3.0370253E-1,-1.5395391E-1,-1.558024E-1,3.2941368E-1,-2.2456406E-1,-1.5777886E-1,1.2880346E-1,-1.4605017E-1,3.225056E-1,-1.5588056E-1,2.4298416E-1,-1.5237764E-1,-1.512389E-1,-1.556006E-1],"split_indices":[24,27,34,56,15,23,35,25,53,0,31,19,19,15,41,29,52,0,0,0,0,43,0,46,0,0,0,35,25,26,23,19,0,30,23,31,29,6,35,0,0,0,0,0,0,0,0,0,0,0,0,0,0,0,0,0,0,0,0],"split_type":[0,0,0,0,0,0,0,0,0,0,0,0,0,0,0,0,0,0,0,0,0,0,0,0,0,0,0,0,0,0,0,0,0,0,0,0,0,0,0,0,0,0,0,0,0,0,0,0,0,0,0,0,0,0,0,0,0,0,0],"sum_hessian":[8.909373E5,5.6553656E5,3.2540078E5,5.5522106E5,1.0315448E4,2.0058673E5,1.2481403E5,5.378373E5,1.73838E4,1.4791685E3,8.836279E3,1.7170092E5,2.8885809E4,1.020359E2,1.2471199E5,5.354749E5,2.3624104E3,3.7680435E3,1.3615757E4,8.820567E3,1.5712468E1,1.6757827E5,4.1226675E3,1.6770002E4,1.2115806E4,5.6296947E1,4.5738945E1,1.2470724E5,4.751364E0,5.3521394E5,2.6094608E2,1.4157316E3,9.4667896E2,1.6634922E5,1.229051E3,1.4219741E4,2.5502622E3,5.020306E1,1.2465704E5,3.7327425E0,1.0186214E0,5.295258E5,5.688114E3,1.1882657E1,2.4906342E2,1.3225795E3,9.315201E1,7.5584503E2,1.6559336E5,3.6712222E2,8.6192883E2,2.9006598E2,1.3929675E4,2.165613E3,3.846491E2,2.9829748E0,4.7220085E1,1.395147E3,1.2326189E5],"tree_param":{"num_deleted":"0","num_feature":"70","num_nodes":"59","size_leaf_vector":"1"}},{"base_weights":[-4.9040854E-1,-1.557189E-1,-2.5456166E-1,8.4835607E-1,-4.30107E-1,9.89377E-1,-1.5565261E-1,-4.7949076E-1,1.0747763E0,1.0444382E0,-4.3375033E-1,-5.061457E-1,1.0264701E0,1.1194526E1,8.3143616E-1,1.0717392E0,-1.5550181E-1,-1.5518187E-1,4.532617E-1,-5.170533E-1,4.723896E-2,1.0741916E0,-1.5129016E-1,3.4908793E0,-1.0210846E-1,1.0921501E0,-1.568943E-1,3.240328E-1,-1.5477479E-1,-1.5526663E-1,2.5375313E-1,3.161444E-1,-1.556918E-1,-1.3304828E-1,3.2458833E-1,4.179789E-1,3.2495505E-1],"categories":[],"categories_nodes":[],"categories_segments":[],"categories_sizes":[],"default_left":[0,0,0,0,0,0,0,0,0,0,0,0,0,0,0,0,0,0,0,0,0,0,0,0,0,0,0,0,0,0,0,0,0,0,0,0,0],"id":23,"left_children":[1,-1,3,5,7,9,-1,11,13,15,17,19,21,23,25,27,-1,-1,-1,29,31,33,-1,-1,-1,35,-1,-1,-1,-1,-1,-1,-1,-1,-1,-1,-1],"loss_changes":[5.0323438E3,0E0,1.5619847E4,2.1363281E3,5.1727734E3,7.873535E2,0E0,2.7055166E3,5.436919E3,4.1306445E2,6.1651833E1,3.9970703E2,8.6179565E1,2.6816748E2,7.635751E2,1.2683789E2,0E0,0E0,0E0,4.4876953E1,7.305397E2,1.3889404E1,0E0,0E0,0E0,3.383789E0,0E0,0E0,0E0,0E0,0E0,0E0,0E0,0E0,0E0,0E0,0E0],"parents":[2147483647,0,0,2,2,3,3,4,4,5,5,7,7,8,8,9,9,10,10,11,11,12,12,13,13,14,14,15,15,19,19,20,20,21,21,25,25],"right_children":[2,-1,4,6,8,10,-1,12,14,16,18,20,22,24,26,28,-1,-1,-1,30,32,34,-1,-1,-1,36,-1,-1,-1,-1,-1,-1,-1,-1,-1,-1,-1],"split_conditions":[3.2E1,-1.557189E-1,8.1205493E-1,4.43E2,1.150255E6,4.196559E7,-1.5565261E-1,4.8521603E2,1.808876E6,3.6E1,2.598E3,2.16375E2,2.25E2,2.29E2,2.29E2,2.25E2,-1.5550181E-1,-1.5518187E-1,4.532617E-1,1.6631704E6,7.06E2,9.64E2,-1.5129016E-1,3.4908793E0,-1.0210846E-1,1.839065E6,-1.568943E-1,3.240328E-1,-1.5477479E-1,-1.5526663E-1,2.5375313E-1,3.161444E-1,-1.556918E-1,-1.3304828E-1,3.2458833E-1,4.179789E-1,3.2495505E-1],"split_indices":[43,0,41,19,25,6,0,14,23,43,63,12,49,50,50,49,0,0,0,7,61,52,0,0,0,26,0,0,0,0,0,0,0,0,0,0,0],"split_type":[0,0,0,0,0,0,0,0,0,0,0,0,0,0,0,0,0,0,0,0,0,0,0,0,0,0,0,0,0,0,0,0,0,0,0,0,0],"sum_hessian":[7.446627E5,6.6398956E5,8.067312E4,1.1076672E4,6.9596445E4,1.0041235E4,1.0354364E3,6.738581E4,2.2106292E3,9.667465E3,3.7377133E2,6.621451E4,1.1713099E3,5.0851963E1,2.159777E3,9.501787E3,1.6567706E2,3.5908255E2,1.4688783E1,6.4934668E4,1.2798356E3,1.1361877E3,3.512217E1,4.8967907E1,1.8840584E0,1.811309E3,3.4846814E2,9.452274E3,4.9512688E1,6.4911375E4,2.3295448E1,4.6043744E2,8.1939813E2,5.501281E0,1.1306864E3,4.791434E1,1.7633947E3],"tree_param":{"num_deleted":"0","num_feature":"70","num_nodes":"37","size_leaf_vector":"1"}},{"base_weights":[-2.4088559E-1,5.3870636E-1,-4.659619E-1,-2.3520227E-1,1.0049155E0,-3.551864E-1,-5.0349855E-1,-2.9718602E-1,1.1723548E0,1.0681883E0,-1.5593448E-1,2.6368827E-1,-1.5589999E-1,-5.177613E-1,-3.9035964E-1,-1.6594097E-1,-5.177946E-1,2.1792488E0,1.1237093E0,-1.5548362E-1,3.2447445E-1,-1.556283E-1,1.0810837E0,-1.5557301E-1,-5.0373924E-1,-4.610662E-1,4.7449264E-1,-1.6864245E-1,1.029801E0,-4.5233834E-1,-1.5559724E-1,1.0906644E0,2.1536553E0,-1.00159734E-1,3.2437527E-1,-1.5559803E-1,1.6190972E0,-1.561667E-1,-1.7715953E-1,9.957671E-1,-1.5561102E-1,-5.0405245E-2,-1.5364781E-1,3.3117008E-1,-1.2822656E-1,-1.5515947E-1,2.8816885E-1,3.2498208E-1,3.9804557E-1,1.1615748E0,3.1900474E-1,1.9786848E0,4.5842516E-1,-1.5357456E-1,2.3749025E-1,3.367915E-1,-1.5520129E-1],"categories":[],"categories_nodes":[],"categories_segments":[],"categories_sizes":[],"default_left":[0,0,0,0,0,0,0,0,0,0,0,0,0,0,0,0,0,0,0,0,0,0,0,0,0,0,0,0,0,0,0,0,0,0,0,0,0,0,0,0,0,0,0,0,0,0,0,0,0,0,0,0,0,0,0,0,0],"id":24,"left_children":[1,3,5,7,9,11,13,15,17,19,-1,21,-1,23,25,27,29,-1,31,-1,-1,-1,33,-1,35,37,39,41,43,45,-1,47,49,-1,-1,-1,51,-1,53,55,-1,-1,-1,-1,-1,-1,-1,-1,-1,-1,-1,-1,-1,-1,-1,-1,-1],"loss_changes":[1.5024655E5,6.921284E4,2.7626406E3,6.292241E3,1.1549531E4,1.7118236E4,8.006094E2,1.9999243E3,8.933071E2,2.442875E3,0E0,2.2584037E4,0E0,4.7734375E0,3.3978535E3,1.4008093E2,1.2211914E0,0E0,1.00404785E2,0E0,0E0,0E0,4.4492188E0,0E0,7.6911475E2,8.674004E2,2.174799E3,9.191528E0,1.1029076E1,3.1933167E1,0E0,3.6716309E0,1.697897E2,0E0,0E0,0E0,6.6709595E1,0E0,2.8866152E3,5.293601E2,0E0,0E0,0E0,0E0,0E0,0E0,0E0,0E0,0E0,0E0,0E0,0E0,0E0,0E0,0E0,0E0,0E0],"parents":[2147483647,0,0,1,1,2,2,3,3,4,4,5,5,6,6,7,7,8,8,9,9,11,11,13,13,14,14,15,15,16,16,18,18,22,22,24,24,25,25,26,26,27,27,28,28,29,29,31,31,32,32,36,36,38,38,39,39],"right_children":[2,4,6,8,10,12,14,16,18,20,-1,22,-1,24,26,28,30,-1,32,-1,-1,-1,34,-1,36,38,40,42,44,46,-1,48,50,-1,-1,-1,52,-1,54,56,-1,-1,-1,-1,-1,-1,-1,-1,-1,-1,-1,-1,-1,-1,-1,-1,-1],"split_conditions":[6E0,1.814816E1,8E0,3.3943762E2,2.26E2,2.26E2,2.6883E4,2.58266E5,6.667707E-2,2.21E2,-1.5593448E-1,2.25E2,-1.5589999E-1,1E0,1.8228572E2,2.21E2,6.14468E5,2.1792488E0,1.5435E4,-1.5548362E-1,3.2447445E-1,-1.556283E-1,2E0,-1.5557301E-1,8.6E2,4.663092E2,2.92E4,1E0,2.26E2,2.21E2,-1.5559724E-1,3.1E2,1.44E2,-1.00159734E-1,3.2437527E-1,-1.5559803E-1,1.44E2,-1.561667E-1,1.28E2,9.64E2,-1.5561102E-1,-5.0405245E-2,-1.5364781E-1,3.3117008E-1,-1.2822656E-1,-1.5515947E-1,2.8816885E-1,3.2498208E-1,3.9804557E-1,1.1615748E0,3.1900474E-1,1.9786848E0,4.5842516E-1,-1.5357456E-1,2.3749025E-1,3.367915E-1,-1.5520129E-1],"split_indices":[58,41,5,14,50,50,50,31,15,50,0,50,0,69,57,50,35,0,8,0,0,0,23,0,11,14,50,64,50,50,0,8,5,0,0,0,5,0,5,52,0,0,0,0,0,0,0,0,0,0,0,0,0,0,0,0,0],"split_type":[0,0,0,0,0,0,0,0,0,0,0,0,0,0,0,0,0,0,0,0,0,0,0,0,0,0,0,0,0,0,0,0,0,0,0,0,0,0,0,0,0,0,0,0,0,0,0,0,0,0,0,0,0,0,0,0,0],"sum_hessian":[8.5626094E5,1.9182823E5,6.644327E5,7.211597E4,1.19712266E5,1.681654E5,4.9626728E5,6.9074945E4,3.0410234E3,1.149426E5,4.769661E3,3.5309387E4,1.3285602E5,4.4070666E5,5.5560633E4,4.3310375E4,2.576457E4,2.291631E1,3.0181072E3,9.6192883E2,1.1398068E5,1.804052E4,1.7268867E4,4.1645238E5,2.4254271E4,5.136197E4,4.1986636E3,4.3213605E4,9.677121E1,3.4203973E2,2.542253E4,2.926279E3,9.1828064E1,1.8063772E0,1.726706E4,2.4085734E4,1.6853671E2,4.2463402E4,8.898565E3,2.7534993E3,1.4451643E3,4.3136617E4,7.698994E1,9.2319275E1,4.451935E0,3.276335E2,1.44062195E1,2.8428923E3,8.338689E1,3.465793E1,5.717013E1,1.7433534E0,1.6679335E2,6.613736E3,2.2848293E3,2.5407222E3,2.1277696E2],"tree_param":{"num_deleted":"0","num_feature":"70","num_nodes":"57","size_leaf_vector":"1"}},{"base_weights":[-4.1037866E-1,-5.1651937E-1,9.9250525E-1,-1.4302705E-1,-1.5567107E-1,-9.004946E-2,1.0692018E0,1.1331947E0,-1.56144E-1,1.1521899E0,5.547942E-1,1.1249603E0,1.5803639E0,-1.6212615E-1,8.917353E-1,3.463665E-1,-1.13282055E-2,7.0271677E-1,4.3257925E-1,2.5647469E-2,-8.0773175E-2,2.4169174E-1,3.393369E-1],"categories":[],"categories_nodes":[],"categories_segments":[],"categories_sizes":[],"default_left":[0,0,0,0,0,0,0,0,0,0,0,0,0,0,0,0,0,0,0,0,0,0,0],"id":25,"left_children":[1,3,5,-1,-1,-1,7,9,-1,11,13,15,17,19,21,-1,-1,-1,-1,-1,-1,-1,-1],"loss_changes":[1.1440746E5,6.746875E1,5.358301E3,0E0,0E0,0E0,5.1903633E3,5.381797E2,0E0,5.518125E2,3.7729477E2,1.5363359E3,2.9585156E2,1.3285922E1,2.0982788E1,0E0,0E0,0E0,0E0,0E0,0E0,0E0,0E0],"parents":[2147483647,0,0,1,1,2,2,6,6,7,7,9,9,10,10,11,11,12,12,13,13,14,14],"right_children":[2,4,6,-1,-1,-1,8,10,-1,12,14,16,18,20,22,-1,-1,-1,-1,-1,-1,-1,-1],"split_conditions":[4E1,1E0,2E0,-1.4302705E-1,-1.5567107E-1,-9.004946E-2,2.2E1,2.4E1,-1.56144E-1,2E1,2.7E1,1.7E1,2.1E1,2.5E1,3.3E1,3.463665E-1,-1.13282055E-2,7.0271677E-1,4.3257925E-1,2.5647469E-2,-8.0773175E-2,2.4169174E-1,3.393369E-1],"split_indices":[43,64,24,0,0,0,19,24,0,25,26,24,26,25,26,0,0,0,0,0,0,0,0],"split_type":[0,0,0,0,0,0,0,0,0,0,0,0,0,0,0,0,0,0,0,0,0,0,0],"sum_hessian":[7.683308E5,7.142891E5,5.4041715E4,4.041764E4,6.738715E5,3.0266494E3,5.1015066E4,4.9041195E4,1.9738706E3,4.7480883E4,1.560311E3,4.464531E4,2.8355771E3,4.9902933E2,1.0612816E3,4.3537164E4,1.1081427E3,4.3348343E2,2.4020938E3,1.5075043E2,3.482789E2,7.837645E2,2.7751712E2],"tree_param":{"num_deleted":"0","num_feature":"70","num_nodes":"23","size_leaf_vector":"1"}},{"base_weights":[-5.111752E-1,-5.161028E-1,6.4991784E-1,-5.1770043E-1,-4.5929697E-1,-5.098832E-1,1.0222152E0,-5.1817876E-1,-1.1298893E-1,-1.568106E-1,7.5677216E-1,-1.5548022E-1,2.5906977E-1,-1.5493813E-1,1.0827941E0,-5.183333E-1,-4.0148357E-1,-1.5580517E-1,1.0461433E0,1.3467585E0,-1.6090982E-1,2.598614E-1,-1.2496876E-1,3.254712E-1,-1.1793232E-1,-5.184587E-1,-4.7610578E-1,-1.5553968E-1,1.5925137E0,-1.410023E-1,3.353127E-1,-5.5917805E-1,1.9545212E0,-1.5568519E-1,-1.5355423E-1,-1.5557694E-1,8.652398E-1,-1.5088665E-1,1.9085492E0,-1.8732955E-1,-1.5611482E-1,4.2859402E-1,1.812296E0],"categories":[],"categories_nodes":[],"categories_segments":[],"categories_sizes":[],"default_left":[0,0,0,0,0,0,0,0,0,0,0,0,0,0,0,0,0,0,0,0,0,0,0,0,0,0,0,0,0,0,0,0,0,0,0,0,0,0,0,0,0,0,0],"id":26,"left_children":[1,3,5,7,9,11,13,15,17,-1,19,-1,21,-1,23,25,27,-1,29,31,-1,-1,-1,-1,-1,33,35,-1,37,-1,-1,39,41,-1,-1,-1,-1,-1,-1,-1,-1,-1,-1],"loss_changes":[4.2132656E3,6.63125E1,1.3443591E3,1.3801562E2,1.5476143E3,5.0142517E0,2.2019336E2,1.2640625E1,3.9773303E2,0E0,7.5969684E2,0E0,3.9832482E0,0E0,7.4868164E0,3.515625E0,2.2164108E2,0E0,2.4311188E1,7.927367E2,0E0,0E0,0E0,0E0,0E0,2.03125E0,3.0388773E2,0E0,5.299282E2,0E0,0E0,9.5329285E-2,1.105404E3,0E0,0E0,0E0,0E0,0E0,0E0,0E0,0E0,0E0,0E0],"parents":[2147483647,0,0,1,1,2,2,3,3,4,4,5,5,6,6,7,7,8,8,10,10,12,12,14,14,15,15,16,16,18,18,19,19,25,25,26,26,28,28,31,31,32,32],"right_children":[2,4,6,8,10,12,14,16,18,-1,20,-1,22,-1,24,26,28,-1,30,32,-1,-1,-1,-1,-1,34,36,-1,38,-1,-1,40,42,-1,-1,-1,-1,-1,-1,-1,-1,-1,-1],"split_conditions":[6.0172384E7,4E1,8.87E7,3.3333334E5,6.7343144E5,2.6883E4,2.8E1,2.6791318E7,2.8E1,-1.568106E-1,4.43E2,-1.5548022E-1,2.92E4,-1.5493813E-1,2.4367445E1,1.4872084E7,2.8E1,-1.5580517E-1,2.0743196E0,8E1,-1.6090982E-1,2.598614E-1,-1.2496876E-1,3.254712E-1,-1.1793232E-1,3.2E1,9E0,-1.5553968E-1,2.4E1,-1.410023E-1,3.353127E-1,7.100717E5,9.897105E-1,-1.5568519E-1,-1.5355423E-1,-1.5557694E-1,8.652398E-1,-1.5088665E-1,1.9085492E0,-1.8732955E-1,-1.5611482E-1,4.2859402E-1,1.812296E0],"split_indices":[6,43,35,15,34,50,43,27,43,0,19,0,50,0,22,8,43,0,22,19,0,0,0,0,0,43,29,0,5,0,0,27,28,0,0,0,0,0,0,0,0,0,0],"split_type":[0,0,0,0,0,0,0,0,0,0,0,0,0,0,0,0,0,0,0,0,0,0,0,0,0,0,0,0,0,0,0,0,0,0,0,0,0,0,0,0,0,0,0],"sum_hessian":[7.3634856E5,7.332373E5,3.1112427E3,7.1317194E5,2.0065414E4,7.55937E2,2.3553057E3,7.123297E5,8.4224225E2,1.9071604E4,9.9381036E2,7.4810614E2,7.8308644E0,8.8932625E1,2.266373E3,7.1138406E5,9.456422E2,6.240267E2,2.1821558E2,6.824193E2,3.1139105E2,3.975946E0,3.8549187E0,2.2634023E3,2.9707208E0,7.092668E5,2.117239E3,8.939375E2,5.170471E1,9.585017E0,2.0863055E2,1.650148E2,5.174045E2,6.6007925E5,4.9187562E4,2.09164E3,2.5599245E1,3.654338E1,1.5161326E1,5.5898315E1,1.0911649E2,4.596085E2,5.779599E1],"tree_param":{"num_deleted":"0","num_feature":"70","num_nodes":"43","size_leaf_vector":"1"}},{"base_weights":[-3.7841514E-1,-1.5571068E-1,1.055251E0,1.100772E0,-1.5628614E-1,1.1141418E0,8.2157016E-1,3.9311704E-1,1.104013E0,5.01904E-1,1.5617324E0,1.1170108E0,8.532786E-1,5.939112E-1,1.0905475E-1,2.7439334E0,1.005189E0,3.309139E-1,5.339109E-1,8.533403E-2,3.1694263E-1,1.6949505E-1,2.138633E-1,-5.0791004E-5,7.988465E-2,6.830007E-1,8.812559E-1,3.5191858E-1,1.5998311E-1],"categories":[],"categories_nodes":[],"categories_segments":[],"categories_sizes":[],"default_left":[0,0,0,0,0,0,0,0,0,0,0,0,0,0,0,0,0,0,0,0,0,0,0,0,0,0,0,0,0],"id":27,"left_children":[1,-1,3,5,-1,7,9,-1,11,13,15,17,19,21,23,25,27,-1,-1,-1,-1,-1,-1,-1,-1,-1,-1,-1,-1],"loss_changes":[1.5802711E5,0E0,5.024297E3,2.5310938E2,0E0,1.2763281E2,7.359053E2,0E0,2.0032031E2,7.858441E1,6.148218E2,5.413594E2,3.5199316E2,5.6637573E0,7.111981E0,2.0437012E1,5.0058594E1,0E0,0E0,0E0,0E0,0E0,0E0,0E0,0E0,0E0,0E0,0E0,0E0],"parents":[2147483647,0,0,2,2,3,3,5,5,6,6,8,8,9,9,10,10,11,11,12,12,13,13,14,14,15,15,16,16],"right_children":[2,-1,4,6,-1,8,10,-1,12,14,16,18,20,22,24,26,28,-1,-1,-1,-1,-1,-1,-1,-1,-1,-1,-1,-1],"split_conditions":[4E1,-1.5571068E-1,2.2E1,2E1,-1.5628614E-1,1.1764706E5,2.4E1,3.9311704E-1,5E0,2.2E1,2.7E1,4E0,6E0,2.1E1,2.3E1,2.5E1,3.3E1,3.309139E-1,5.339109E-1,8.533403E-2,3.1694263E-1,1.6949505E-1,2.138633E-1,-5.0791004E-5,7.988465E-2,6.830007E-1,8.812559E-1,3.5191858E-1,1.5998311E-1],"split_indices":[43,0,19,23,0,28,26,0,26,24,24,23,23,26,26,23,23,0,0,0,0,0,0,0,0,0,0,0,0],"split_type":[0,0,0,0,0,0,0,0,0,0,0,0,0,0,0,0,0,0,0,0,0,0,0,0,0,0,0,0,0],"sum_hessian":[7.838503E5,7.138348E5,7.001549E4,6.8050484E4,1.9650078E3,6.4937902E4,3.1125845E3,3.1807832E3,6.1757117E4,2.1749365E3,9.376478E2,5.8710195E4,3.0469236E3,1.7618021E3,4.1313446E2,2.9886758E2,6.387802E2,5.7501176E4,1.2090177E3,8.025778E2,2.2443457E3,1.4218225E3,3.3997958E2,2.4437138E2,1.6876308E2,9.128664E1,2.0758096E2,4.70075E2,1.687052E2],"tree_param":{"num_deleted":"0","num_feature":"70","num_nodes":"29","size_leaf_vector":"1"}},{"base_weights":[-3.8618395E-1,1.1015616E-1,-4.387199E-1,-3.7008736E-1,-4.6952975E-1,-4.251249E-1,1.0525658E0,-4.7039333E-1,1.1535051E0,-4.26701E-1,-2.2486031E-1,1.0927902E0,-1.1785633E-1,-4.795066E-1,-4.185133E-1,3.499773E-1,6.6878706E-1,-4.941638E-1,-4.2270342E-1,1.5398915E-1,-3.8806054E-1,-2.0661321E-1,1.0997623E0,-1.922718E-1,9.440246E-1,-4.865355E-1,-4.0657324E-1,3.944898E0,-4.1998592E-1,-6.3135885E-2,2.79349E-1,-1.5209417E-1,-1.3311316E-1,-1.2690374E-1,4.7492164E-1,4.0895898E-2,9.583046E-1,-1.1917257E-1,1.4686543E-1,-1.4929418E-1,3.208214E-2,4.0567723E-1,3.2805645E-1,-3.6719903E-2,-1.5244192E-1,-1.4739104E-1,-1.24421515E-1,1.1175108E-1,-1.2536283E-1,-1.413124E-1,2.1182165E0,-1.406318E-1,-1.0622502E-1],"categories":[],"categories_nodes":[],"categories_segments":[],"categories_sizes":[],"default_left":[0,0,0,0,0,0,0,0,0,0,0,0,0,0,0,0,0,0,0,0,0,0,0,0,0,0,0,0,0,0,0,0,0,0,0,0,0,0,0,0,0,0,0,0,0,0,0,0,0,0,0,0,0],"id":28,"left_children":[1,-1,3,5,7,9,11,13,15,17,19,21,23,25,27,-1,29,31,33,35,37,39,41,43,-1,45,47,49,51,-1,-1,-1,-1,-1,-1,-1,-1,-1,-1,-1,-1,-1,-1,-1,-1,-1,-1,-1,-1,-1,-1,-1,-1],"loss_changes":[2.9978656E4,0E0,1.4970625E3,1.7177723E4,6.8547656E2,6.657031E1,3.848252E2,2.3072656E2,8.699951E-1,5.6308594E1,1.0216029E2,7.1796875E1,6.6780136E1,2.1276562E2,4.7062598E2,0E0,2.3142982E0,7.352051E0,1.2332031E2,2.631286E1,9.496597E0,3.9774356E0,1.090332E1,5.8364983E0,0E0,1.2950781E2,3.2177588E2,3.4344885E2,2.3441797E2,0E0,0E0,0E0,0E0,0E0,0E0,0E0,0E0,0E0,0E0,0E0,0E0,0E0,0E0,0E0,0E0,0E0,0E0,0E0,0E0,0E0,0E0,0E0,0E0],"parents":[2147483647,0,0,2,2,3,3,4,4,5,5,6,6,7,7,8,8,9,9,10,10,11,11,12,12,13,13,14,14,16,16,17,17,18,18,19,19,20,20,21,21,22,22,23,23,25,25,26,26,27,27,28,28],"right_children":[2,-1,4,6,8,10,12,14,16,18,20,22,24,26,28,-1,30,32,34,36,38,40,42,44,-1,46,48,50,52,-1,-1,-1,-1,-1,-1,-1,-1,-1,-1,-1,-1,-1,-1,-1,-1,-1,-1,-1,-1,-1,-1,-1,-1],"split_conditions":[1E0,1.1015616E-1,3.2E1,1E0,1E0,1.13E8,1.026E3,1.693125E2,4.18839E5,3.3283107E-2,1.1462576E8,2.4E1,5E5,2.79E2,4E1,3.499773E-1,1.342539E6,5E0,4E0,1.9393236E7,1.2E8,2E1,2.3245412E-1,6.2E1,9.440246E-1,1E0,6.4E1,2.04E2,1E0,-6.3135885E-2,2.79349E-1,-1.5209417E-1,-1.3311316E-1,-1.2690374E-1,4.7492164E-1,4.0895898E-2,9.583046E-1,-1.1917257E-1,1.4686543E-1,-1.4929418E-1,3.208214E-2,4.0567723E-1,3.2805645E-1,-3.6719903E-2,-1.5244192E-1,-1.4739104E-1,-1.24421515E-1,1.1175108E-1,-1.2536283E-1,-1.413124E-1,2.1182165E0,-1.406318E-1,-1.0622502E-1],"split_indices":[66,0,30,51,17,35,50,53,26,15,23,30,15,3,30,0,23,66,66,48,35,23,15,26,0,36,50,54,59,0,0,0,0,0,0,0,0,0,0,0,0,0,0,0,0,0,0,0,0,0,0,0,0],"split_type":[0,0,0,0,0,0,0,0,0,0,0,0,0,0,0,0,0,0,0,0,0,0,0,0,0,0,0,0,0,0,0,0,0,0,0,0,0,0,0,0,0,0,0,0,0,0,0,0,0,0,0,0,0],"sum_hessian":[7.57432E5,4.937554E4,7.0805644E5,2.1937852E5,4.8867794E5,2.112083E5,8.1702207E3,4.8841878E5,2.591641E2,2.0955794E5,1.6503552E3,7.898824E3,2.7139606E2,4.154349E5,7.2983875E4,2.5098158E2,8.182525E0,1.1716085E4,1.9784186E5,4.9690567E2,1.1534495E3,4.200286E1,7.856822E3,2.6626767E2,5.1283693E0,3.789121E5,3.652281E4,2.371952E1,7.296016E4,1.9260615E0,6.256463E0,9.335525E3,2.3805598E3,1.9781216E5,2.9691711E1,4.9507333E2,1.8323565E0,1.1420491E3,1.1400439E1,2.1479197E1,2.0523666E1,1.8430891E2,7.6725127E3,2.191727E2,4.7094982E1,3.5531062E5,2.3601477E4,5.218386E2,3.6000973E4,1.0163706E1,1.3555815E1,4.192072E4,3.1039436E4],"tree_param":{"num_deleted":"0","num_feature":"70","num_nodes":"53","size_leaf_vector":"1"}},{"base_weights":[-5.190858E-1,-5.204285E-1,-1.5564522E-1,-1.5582362E-1,-5.237995E-1,-1.5937072E-1,-1.5663171E-1],"categories":[],"categories_nodes":[],"categories_segments":[],"categories_sizes":[],"default_left":[0,0,0,0,0,0,0],"id":29,"left_children":[1,3,-1,-1,5,-1,-1],"loss_changes":[1.5625E-2,1.484375E-1,0E0,0E0,7.5683594E-2,0E0,0E0],"parents":[2147483647,0,0,1,1,4,4],"right_children":[2,4,-1,-1,6,-1,-1],"split_conditions":[8E1,2.052E3,-1.5564522E-1,-1.5582362E-1,2.24E3,-1.5937072E-1,-1.5663171E-1],"split_indices":[23,50,0,0,50,0,0],"split_type":[0,0,0,0,0,0,0],"sum_hessian":[7.332813E5,1.2186602E5,6.1141525E5,9.375297E4,2.811305E4,5.15747E3,2.2955582E4],"tree_param":{"num_deleted":"0","num_feature":"70","num_nodes":"7","size_leaf_vector":"1"}},{"base_weights":[-5.190603E-1,-5.190878E-1,-4.992834E-1,-1.5639764E-1,-1.5565775E-1,9.4372475E-1,-5.069239E-1,8.4652084E-1,-5.136269E-1,-5.155426E-1,2.021831E-1,-1.5494715E-1,-2.6078072E-1,-1.2359573E-1,6.752486E-2],"categories":[],"categories_nodes":[],"categories_segments":[],"categories_sizes":[],"default_left":[0,0,0,0,0,0,0,0,0,0,0,0,0,0,0],"id":30,"left_children":[1,3,5,-1,-1,-1,7,-1,9,11,-1,-1,13,-1,-1],"loss_changes":[1.5625E-1,7.8125E-2,3.0689209E1,0E0,0E0,0E0,2.472879E1,0E0,2.7184448E0,1.166687E-1,0E0,0E0,5.2458125E-1,0E0,0E0],"parents":[2147483647,0,0,1,1,2,2,6,6,8,8,9,9,12,12],"right_children":[2,4,6,-1,-1,-1,8,-1,10,12,-1,-1,14,-1,-1],"split_conditions":[7.290064E2,2.2E1,5.406E3,-1.5639764E-1,-1.5565775E-1,9.4372475E-1,2.189E4,8.4652084E-1,2.598E3,9.4075E2,2.021831E-1,-1.5494715E-1,8.353333E1,-1.2359573E-1,6.752486E-2],"split_indices":[14,19,6,0,0,0,35,0,68,12,0,0,38,0,0],"split_type":[0,0,0,0,0,0,0,0,0,0,0,0,0,0,0],"sum_hessian":[7.333346E5,7.3229094E5,1.0436934E3,6.768106E4,6.646099E5,1.3240223E0,1.0423693E3,1.2508155E0,1.0411185E3,1.0400066E3,1.1118662E0,1.0351283E3,4.878312E0,3.8364344E0,1.0418779E0],"tree_param":{"num_deleted":"0","num_feature":"70","num_nodes":"15","size_leaf_vector":"1"}},{"base_weights":[-3.9750248E-1,-1.5571949E-1,2.7028742E-1,-5.1838994E-1,7.012302E-1,-5.185389E-1,2.5898793E-1,-1.5656906E-1,1.0591806E0,-1.5561502E-1,-3.5849297E-1,1.0763272E0,-1.5539517E-1,9.371272E-1,-1.5484963E-1,-1.5592349E-1,1.0815129E0,3.2457438E-1,-4.3241456E-2],"categories":[],"categories_nodes":[],"categories_segments":[],"categories_sizes":[],"default_left":[0,0,0,0,0,0,0,0,0,0,0,0,0,0,0,0,0,0,0],"id":31,"left_children":[1,-1,3,5,7,9,-1,-1,11,-1,13,15,-1,-1,-1,-1,17,-1,-1],"loss_changes":[6.370539E4,0E0,4.107615E4,9.235352E0,3.421728E4,1.0283203E0,0E0,0E0,1.6355547E3,0E0,2.9404863E1,4.9559375E2,0E0,0E0,0E0,0E0,2.9507812E1,0E0,0E0],"parents":[2147483647,0,0,2,2,3,3,4,4,5,5,8,8,10,10,11,11,16,16],"right_children":[2,-1,4,6,8,10,-1,-1,12,-1,14,16,-1,-1,-1,-1,18,-1,-1],"split_conditions":[3.2E1,-1.5571949E-1,4.1310364E1,1.3E1,2.8E1,1.911E3,2.5898793E-1,-1.5656906E-1,1.4686382E2,-1.5561502E-1,3.9013E4,2.41E2,-1.5539517E-1,9.371272E-1,-1.5484963E-1,-1.5592349E-1,1.93E2,3.2457438E-1,-4.3241456E-2],"split_indices":[43,0,15,29,5,61,0,0,40,0,7,50,0,0,0,0,8,0,0],"split_type":[0,0,0,0,0,0,0,0,0,0,0,0,0,0,0,0,0,0,0],"sum_hessian":[7.8475725E5,6.639026E5,1.2085463E5,4.270292E4,7.815171E4,4.2698945E4,3.9778914E0,1.7693172E4,6.045854E4,4.264933E4,4.961878E1,5.9808633E4,6.4990686E2,1.3344872E0,4.828429E1,1.9337106E2,5.961526E4,5.9595848E4,1.9414928E1],"tree_param":{"num_deleted":"0","num_feature":"70","num_nodes":"19","size_leaf_vector":"1"}},{"base_weights":[8.22535E-1,8.270628E-1,9.4788894E-2,8.340251E-1,6.666005E-1,-5.1267624E-1,8.7484723E-1,8.412616E-1,7.3875606E-1,-4.407299E-1,8.4788656E-1,-5.1518166E-1,7.9774225E-1,1.0711129E0,8.547527E-1,8.468156E-1,6.861922E-1,-2.511998E-1,8.576797E-1,9.2965335E-1,-4.72217E-1,8.2957126E-2,8.5757923E-1,-9.237587E-2,-5.1883525E-1,-1.9780105E-2,2.509554E-1,1.3060579E0,2.5257766E-1,2.9699033E-1,8.654799E-1,8.1919336E-1,8.65276E-1,6.435223E-2,8.562221E-1,1.1090267E0,-3.940745E-1,7.615466E-1,8.60993E-1,7.357458E-1,1.921379E0,-4.8821285E-1,1.6072075E0,5.1860476E-1,-7.430643E-2,8.61663E-1,8.044215E-1,-2.4971062E-1,1.1059589E0,-5.1652706E-1,-2.5300124E-1,1.2607045E0,1.0852817E0,5.376181E0,5.23413E-2,2.5968933E-1,-4.413009E-2,2.265851E-1,2.5383487E-1,2.8980634E-1,2.5672552E-1,-1.0639155E-1,2.5574604E-1,2.579194E-1,1.657687E-1,-9.5768705E-2,3.5300454E-1,-1.3987026E-1,3.9717305E-1,2.7968773E-1,2.225614E-1,2.5830394E-1,-1.4325897E-1,1.1145725E0,2.0099522E-1,1.5197467E0,3.8140097E-1,-1.4862862E-1,2.0500575E-1,6.3139033E-1,2.431893E-1,1.8824382E-1,1.4355946E-1,-1.0724087E-1,2.6758065E-2,2.682511E-1,2.583781E-1,2.4474494E-1,-1.1808951E-1,-1.15371505E-2,-2.3312081E-1,6.0327417E-1,2.689321E-1,-1.5575546E-1,1.587138E-2,2.6068735E-1,3.9006963E-1,1.7252544E0,4.5955315E-1,-1.3200589E-1,2.6230654E-1],"categories":[],"categories_nodes":[],"categories_segments":[],"categories_sizes":[],"default_left":[0,0,0,0,0,0,0,0,0,0,0,0,0,0,0,0,0,0,0,0,0,0,0,0,0,0,0,0,0,0,0,0,0,0,0,0,0,0,0,0,0,0,0,0,0,0,0,0,0,0,0,0,0,0,0,0,0,0,0,0,0,0,0,0,0,0,0,0,0,0,0,0,0,0,0,0,0,0,0,0,0,0,0,0,0,0,0,0,0,0,0,0,0,0,0,0,0,0,0,0,0],"id":32,"left_children":[1,3,5,7,9,11,13,15,17,19,21,23,25,27,29,31,33,35,37,39,41,43,45,47,49,-1,-1,51,-1,53,55,57,59,61,63,65,67,69,71,73,75,77,79,81,83,85,87,89,91,93,-1,95,-1,97,99,-1,-1,-1,-1,-1,-1,-1,-1,-1,-1,-1,-1,-1,-1,-1,-1,-1,-1,-1,-1,-1,-1,-1,-1,-1,-1,-1,-1,-1,-1,-1,-1,-1,-1,-1,-1,-1,-1,-1,-1,-1,-1,-1,-1,-1,-1],"loss_changes":[1.4424E4,4.85925E3,1.2826401E4,2.874E3,3.631615E4,5.0372803E1,4.5820312E1,3.3365E3,3.465367E4,1.0986367E3,1.1525078E3,2.3415283E1,1.0408115E0,5.7951904E1,6.409082E1,1.90675E3,1.4167133E4,6.1355605E3,8.3046875E1,1.0858136E2,8.283491E2,1.3338206E2,3.2632812E1,2.504008E1,1.084375E1,0E0,0E0,5.20213E1,0E0,2.5378522E2,1.7441406E0,2.5779375E3,2.150875E3,9.501366E3,1.11640625E2,2.9035547E2,3.5422598E3,2.8749512E1,7.25E0,9.157245E1,1.8350378E2,2.0907227E2,7.364273E1,1.952591E0,6.628008E1,1.09375E0,1.5004004E2,1.2995528E1,1.1225185E0,2.2660645E1,0E0,7.090393E0,0E0,4.709442E0,7.974154E1,0E0,0E0,0E0,0E0,0E0,0E0,0E0,0E0,0E0,0E0,0E0,0E0,0E0,0E0,0E0,0E0,0E0,0E0,0E0,0E0,0E0,0E0,0E0,0E0,0E0,0E0,0E0,0E0,0E0,0E0,0E0,0E0,0E0,0E0,0E0,0E0,0E0,0E0,0E0,0E0,0E0,0E0,0E0,0E0,0E0,0E0],"parents":[2147483647,0,0,1,1,2,2,3,3,4,4,5,5,6,6,7,7,8,8,9,9,10,10,11,11,12,12,13,13,14,14,15,15,16,16,17,17,18,18,19,19,20,20,21,21,22,22,23,23,24,24,27,27,29,29,30,30,31,31,32,32,33,33,34,34,35,35,36,36,37,37,38,38,39,39,40,40,41,41,42,42,43,43,44,44,45,45,46,46,47,47,48,48,49,49,51,51,53,53,54,54],"right_children":[2,4,6,8,10,12,14,16,18,20,22,24,26,28,30,32,34,36,38,40,42,44,46,48,50,-1,-1,52,-1,54,56,58,60,62,64,66,68,70,72,74,76,78,80,82,84,86,88,90,92,94,-1,96,-1,98,100,-1,-1,-1,-1,-1,-1,-1,-1,-1,-1,-1,-1,-1,-1,-1,-1,-1,-1,-1,-1,-1,-1,-1,-1,-1,-1,-1,-1,-1,-1,-1,-1,-1,-1,-1,-1,-1,-1,-1,-1,-1,-1,-1,-1,-1,-1],"split_conditions":[4E1,2.4E1,4.18839E5,3.102E4,4.43E2,6.265571E6,8E1,1.839065E6,4.43E2,3.2E1,2.8E1,1.6384E4,6.456E3,7.898329E5,4.43E2,2.4E1,4.603596E7,4.51E2,3.2738E4,1.0227E4,2.92E4,4E0,1E0,1.026E3,4.3133514E1,-1.9780105E-2,2.509554E-1,3.202658E6,2.5257766E-1,1.2221926E5,1E0,2.9E1,8E1,4.43E2,6.46E7,3.4902E4,6.3358E4,1.5384615E4,6.995315E2,5.09E2,2.92E4,3.6E1,1.5E1,1.548E3,2.22E2,3.5684E4,8.08E3,2.57E2,4.43E2,2.92E4,-2.5300124E-1,6.456E3,1.0852817E0,1E0,2.1905572E6,2.5968933E-1,-4.413009E-2,2.265851E-1,2.5383487E-1,2.8980634E-1,2.5672552E-1,-1.0639155E-1,2.5574604E-1,2.579194E-1,1.657687E-1,-9.5768705E-2,3.5300454E-1,-1.3987026E-1,3.9717305E-1,2.7968773E-1,2.225614E-1,2.5830394E-1,-1.4325897E-1,1.1145725E0,2.0099522E-1,1.5197467E0,3.8140097E-1,-1.4862862E-1,2.0500575E-1,6.3139033E-1,2.431893E-1,1.8824382E-1,1.4355946E-1,-1.0724087E-1,2.6758065E-2,2.682511E-1,2.583781E-1,2.4474494E-1,-1.1808951E-1,-1.15371505E-2,-2.3312081E-1,6.0327417E-1,2.689321E-1,-1.5575546E-1,1.587138E-2,2.6068735E-1,3.9006963E-1,1.7252544E0,4.5955315E-1,-1.3200589E-1,2.6230654E-1],"split_indices":[43,43,26,50,19,7,19,26,19,43,30,50,50,34,19,26,23,35,50,50,50,23,59,50,34,0,0,23,0,34,0,63,23,19,46,50,23,28,55,50,50,43,26,19,23,23,19,50,19,50,0,50,0,17,25,0,0,0,0,0,0,0,0,0,0,0,0,0,0,0,0,0,0,0,0,0,0,0,0,0,0,0,0,0,0,0,0,0,0,0,0,0,0,0,0,0,0,0,0,0,0],"split_type":[0,0,0,0,0,0,0,0,0,0,0,0,0,0,0,0,0,0,0,0,0,0,0,0,0,0,0,0,0,0,0,0,0,0,0,0,0,0,0,0,0,0,0,0,0,0,0,0,0,0,0,0,0,0,0,0,0,0,0,0,0,0,0,0,0,0,0,0,0,0,0,0,0,0,0,0,0,0,0,0,0,0,0,0,0,0,0,0,0,0,0,0,0,0,0,0,0,0,0,0,0],"sum_hessian":[4.377284E6,4.3502175E6,2.7066064E4,4.1693125E6,1.8090533E5,1.521659E4,1.1849474E4,3.8749648E6,2.9434775E5,2.5450047E4,1.5545528E5,1.5188158E4,2.843172E1,1.0956638E3,1.075381E4,3.7409735E6,1.3399128E5,3.1567703E4,2.6278003E5,5.709877E2,2.487906E4,1.945294E3,1.5350998E5,1.3034584E2,1.50578125E4,1.1915321E0,2.7240189E1,5.387157E2,5.5694806E2,2.0346057E2,1.055035E4,1.4986235E6,2.24235E6,2.877083E4,1.0522045E5,2.9999707E3,2.8567732E4,8.762769E3,2.5401727E5,4.7906094E2,9.1926704E1,2.46899E4,1.8916032E2,5.153597E2,1.4299343E3,1.4254398E5,1.0965999E4,1.1591806E2,1.4427782E1,1.4954036E4,1.0377704E2,5.298649E2,8.85076E0,8.385846E0,1.9507472E2,1.0548919E4,1.4303328E0,4.4420178E5,1.0544218E6,1.9366856E5,2.0486814E6,1.8784893E4,9.9859375E3,1.04016586E5,1.2038687E3,1.3551042E2,2.8644602E3,2.7416883E4,1.1508494E3,9.006226E2,7.8621465E3,2.5401381E5,3.460934E0,9.146812E0,4.6991415E2,1.4584447E1,7.734226E1,2.4539334E4,1.5056543E2,1.1543451E2,7.372581E1,1.3470982E2,3.8064984E2,5.229898E2,9.0694446E2,1.7173969E3,1.408266E5,1.0862998E4,1.0300142E2,8.352992E1,3.238814E1,1.0960286E0,1.3331754E1,1.4884651E4,6.938416E1,5.0670277E1,4.7919467E2,7.189258E0,1.1965879E0,1.2229093E2,7.278379E1],"tree_param":{"num_deleted":"0","num_feature":"70","num_nodes":"101","size_leaf_vector":"1"}},{"base_weights":[-3.2138354E-1,-1.3034771E-1,-5.0897604E-1,-2.7389768E-1,8.386043E-1,-4.3639103E-1,-1.5431681E-1,-4.595247E-1,-3.5703305E-2,8.711701E-1,-5.0378615E-1,-1.5422986E-1,4.2677912E-1,-8.6645365E-2,-5.083923E-1,7.912333E-1,-5.070425E-1,8.7238204E-1,-1.5015334E-1,-1.5334955E-1,-1.726788E-1,-1.5405335E-1,7.94131E-1,-5.1428837E-1,-2.796138E-1,-1.5426698E-1,8.3209485E-1,-7.450845E-2,-5.1344186E-1,8.7255937E-1,-1.2964228E-1,2.2064109E-1,-1.4618029E-1,1.9949771E0,7.693491E-1,-1.5454812E-1,-5.0971124E-2,2.658269E-1,-1.542877E-1,2.600633E-1,-1.5601945E-1,-3.1409603E-2,1.2591387E0,-1.0904375E-1,-1.542022E-1,7.24119E-3,2.617752E-1,2.62337E-1,-1.5285797E-1],"categories":[],"categories_nodes":[],"categories_segments":[],"categories_sizes":[],"default_left":[0,0,0,0,0,0,0,0,0,0,0,0,0,0,0,0,0,0,0,0,0,0,0,0,0,0,0,0,0,0,0,0,0,0,0,0,0,0,0,0,0,0,0,0,0,0,0,0,0],"id":33,"left_children":[1,3,5,7,9,11,-1,13,15,17,19,-1,21,-1,23,25,27,29,-1,-1,31,-1,33,35,37,-1,39,41,43,45,-1,-1,-1,-1,47,-1,-1,-1,-1,-1,-1,-1,-1,-1,-1,-1,-1,-1,-1],"loss_changes":[2.3593078E4,4.536984E4,1.3028906E2,1.2561295E4,1.8403867E3,1.5469673E3,0E0,1.3317852E3,4.8499113E4,6.874805E1,2.3488617E0,0E0,6.5845667E2,0E0,1.6729492E2,2.4101797E3,2.1933594E2,9.873047E0,0E0,0E0,7.0023537E0,0E0,1.9373633E2,3.625E1,8.542269E2,0E0,2.060627E3,1.4960522E2,6.435547E0,8.339844E-1,0E0,0E0,0E0,0E0,1.8401447E2,0E0,0E0,0E0,0E0,0E0,0E0,0E0,0E0,0E0,0E0,0E0,0E0,0E0,0E0],"parents":[2147483647,0,0,1,1,2,2,3,3,4,4,5,5,7,7,8,8,9,9,10,10,12,12,14,14,15,15,16,16,17,17,20,20,22,22,23,23,24,24,26,26,27,27,28,28,29,29,34,34],"right_children":[2,4,6,8,10,12,-1,14,16,18,20,-1,22,-1,24,26,28,30,-1,-1,32,-1,34,36,38,-1,40,42,44,46,-1,-1,-1,-1,48,-1,-1,-1,-1,-1,-1,-1,-1,-1,-1,-1,-1,-1,-1],"split_conditions":[3.9E1,1.08666664E2,2.7E1,3.87E2,6.2E1,2.5666666E1,-1.5431681E-1,1E0,7.9E2,1.55E2,1.6E1,-1.5422986E-1,1E0,-8.6645365E-2,1.28E2,2.56E2,9.04E2,4.825E3,-1.5015334E-1,-1.5334955E-1,9.6E1,-1.5405335E-1,2.89E2,1.3E1,1.2888E4,-1.5426698E-1,2.238E3,3.01E7,9.58E2,8E1,-1.2964228E-1,2.2064109E-1,-1.4618029E-1,1.9949771E0,5.2E1,-1.5454812E-1,-5.0971124E-2,2.658269E-1,-1.542877E-1,2.600633E-1,-1.5601945E-1,-3.1409603E-2,1.2591387E0,-1.0904375E-1,-1.542022E-1,7.24119E-3,2.617752E-1,2.62337E-1,-1.5285797E-1],"split_indices":[12,38,38,26,53,38,0,64,23,61,65,0,20,0,61,50,26,49,0,0,30,0,61,64,35,0,50,46,23,5,0,0,0,0,5,0,0,0,0,0,0,0,0,0,0,0,0,0,0],"split_type":[0,0,0,0,0,0,0,0,0,0,0,0,0,0,0,0,0,0,0,0,0,0,0,0,0,0,0,0,0,0,0,0,0,0,0,0,0,0,0,0,0,0,0,0,0,0,0,0,0],"sum_hessian":[6.58347E5,3.2618078E5,3.3216625E5,2.8409316E5,4.2087605E4,2.3058742E4,3.091075E5,1.5966436E5,1.244288E5,4.1091105E4,9.965009E2,2.1154658E4,1.9040833E3,3.553579E4,1.2412858E5,4.5173645E4,7.925515E4,4.1055195E4,3.5910564E1,9.742453E2,2.225563E1,5.3479645E2,1.3692867E3,1.2100867E5,3.1199014E3,1.3706948E3,4.380295E4,1.1556677E3,7.8099484E4,4.1049945E4,5.2488446E0,5.381767E0,1.6873863E1,4.64382E0,1.364643E3,1.2070256E5,3.0611465E2,5.2237354E2,2.5975278E3,4.2704777E4,1.0981703E3,1.148526E3,7.1418314E0,2.9577502E2,7.780371E4,1.2163419E0,4.104873E4,1.2612965E3,1.0334648E2],"tree_param":{"num_deleted":"0","num_feature":"70","num_nodes":"49","size_leaf_vector":"1"}},{"base_weights":[-5.142675E-1,-5.1440287E-1,6.3153E-2,-5.1452756E-1,-2.7498448E-1,-1.4268334E-1,1.1933355E-1,-1.5504012E-1,-1.5428983E-1,-1.5430206E-1,1.0548863E0,3.096257E-4,1.3369599E-1,-1.3928528E-1,3.9901197E-1,1.03134535E-1,3.8055416E-2],"categories":[],"categories_nodes":[],"categories_segments":[],"categories_sizes":[],"default_left":[0,0,0,0,0,0,0,0,0,0,0,0,0,0,0,0,0],"id":34,"left_children":[1,3,5,7,9,-1,11,-1,-1,-1,13,-1,15,-1,-1,-1,-1],"loss_changes":[4.5265625E1,1.7109375E1,4.1886487E0,4.6875E-2,9.706221E1,0E0,2.1126163E-1,0E0,0E0,0E0,2.0087654E1,0E0,1.1591935E-1,0E0,0E0,0E0,0E0],"parents":[2147483647,0,0,1,1,2,2,3,3,4,4,6,6,10,10,12,12],"right_children":[2,4,6,8,10,-1,12,-1,-1,-1,14,-1,16,-1,-1,-1,-1],"split_conditions":[5E2,5.2E1,5E0,4E0,1E0,-1.4268334E-1,2.1369766E7,-1.5504012E-1,-1.5428983E-1,-1.5430206E-1,3.024E2,3.096257E-4,3.999946E6,-1.3928528E-1,3.9901197E-1,1.03134535E-1,3.8055416E-2],"split_indices":[54,29,29,23,20,0,46,0,0,0,42,0,1,0,0,0,0],"split_type":[0,0,0,0,0,0,0,0,0,0,0,0,0,0,0,0,0],"sum_hessian":[5.786275E5,5.78492E5,1.3550996E2,5.781898E5,3.0222324E2,1.2091198E1,1.2341876E2,5.2548906E4,5.256409E5,2.5664453E2,4.5578712E1,1.3477585E1,1.0994118E2,6.8839355E0,3.869478E1,1.9156687E0,1.08025505E2],"tree_param":{"num_deleted":"0","num_feature":"70","num_nodes":"17","size_leaf_vector":"1"}},{"base_weights":[-5.14661E-1,-5.1476634E-1,-4.070065E-1,-5.163282E-1,-1.5433484E-1,-1.5439135E-1,1.1133498E0,-5.1773876E-1,-1.543072E-1,-1.286057E-1,4.0440342E-1,-1.5533225E-1,2.1483268E-1],"categories":[],"categories_nodes":[],"categories_segments":[],"categories_sizes":[],"default_left":[0,0,0,0,0,0,0,0,0,0,0,0,0],"id":35,"left_children":[1,3,5,7,-1,-1,9,11,-1,-1,-1,-1,-1],"loss_changes":[6.34375E0,3.125E-2,9.39143E1,1.953125E-3,0E0,0E0,1.43385315E1,2.8388672E0,0E0,0E0,0E0,0E0,0E0],"parents":[2147483647,0,0,1,1,2,2,3,3,6,6,7,7],"right_children":[2,4,6,8,-1,-1,10,12,-1,-1,-1,-1,-1],"split_conditions":[2.932E3,8E1,2.802026E2,4.43E2,-1.5433484E-1,-1.5439135E-1,2E0,2.7577164E1,-1.543072E-1,-1.286057E-1,4.0440342E-1,-1.5533225E-1,2.1483268E-1],"split_indices":[30,23,40,19,0,0,26,34,0,0,0,0,0],"split_type":[0,0,0,0,0,0,0,0,0,0,0,0,0],"sum_hessian":[5.785856E5,5.780162E5,5.694139E2,9.721799E4,4.8079822E5,5.323859E2,3.7027943E1,5.651196E4,4.0706035E4,4.78135E0,3.224659E1,5.6510918E4,1.0396905E0],"tree_param":{"num_deleted":"0","num_feature":"70","num_nodes":"13","size_leaf_vector":"1"}},{"base_weights":[-1.1566356E-1,-5.1294374E-1,3.1205288E-1,-5.13461E-1,-4.2768684E-1,6.929899E-1,-4.8788786E-1,-5.145014E-1,-5.032847E-1,-5.0846404E-1,1.9922593E-1,7.46508E-1,-1.5437444E-1,-5.005678E-1,9.183288E-2,-1.5518817E-1,-5.140874E-1,7.3106754E-1,-1.5430382E-1,-4.7217298E-1,-1.5426114E-1,-1.5638204E-1,7.033072E-1,7.956497E-1,-1.5451744E-1,-3.1369475E-1,-5.108515E-1,8.3027834E-1,-5.229268E-1,-1.5429983E-1,-5.090694E-1,-1.6852774E-1,8.183991E-1,-1.4529619E-1,2.8214183E-1,1.0346293E0,-1.5489672E-1,-1.5434313E-1,8.297799E-1,-4.697512E-1,4.204903E-1,-4.287108E-1,-5.142091E-1,-1.588663E-1,1.0210874E0,2.4623497E-1,-5.315241E-1,1.5052247E-1,-1.5290008E-1,-1.2748568E-1,2.515373E-1,2.6265243E-1,3.2714307E-1,-1.9277753E-1,2.5296363E-1,-1.573174E-1,-6.670947E-2,2.5994867E-1,-1.5405586E-1,-1.5437621E-1,5.8397097E-3,-1.5067278E-1,-1.5436836E-1,4.400648E-1,2.7498063E-1,-1.0341343E-1,-1.635518E-1],"categories":[],"categories_nodes":[],"categories_segments":[],"categories_sizes":[],"default_left":[0,0,0,0,0,0,0,0,0,0,0,0,0,0,0,0,0,0,0,0,0,0,0,0,0,0,0,0,0,0,0,0,0,0,0,0,0,0,0,0,0,0,0,0,0,0,0,0,0,0,0,0,0,0,0,0,0,0,0,0,0,0,0,0,0,0,0],"id":36,"left_children":[1,3,5,7,9,11,13,15,17,19,21,23,-1,25,27,-1,29,31,-1,33,-1,-1,35,37,-1,39,41,43,45,-1,47,-1,49,-1,-1,51,-1,-1,53,55,57,59,61,-1,63,-1,65,-1,-1,-1,-1,-1,-1,-1,-1,-1,-1,-1,-1,-1,-1,-1,-1,-1,-1,-1,-1],"loss_changes":[1.3305195E5,1.7679688E1,1.1490147E5,4.0234375E0,1.2437161E2,1.6507867E4,8.941758E2,1.5625E-1,5.120166E2,2.1008301E-1,1.0235809E2,1.516375E4,0E0,2.285918E2,1.1827412E3,0E0,1.25E-1,3.808342E1,0E0,5.760399E0,0E0,0E0,6.747206E1,1.0527125E4,0E0,7.1185974E2,3.0894531E1,3.0763702E2,1.6861755E1,0E0,9.293945E0,0E0,8.151352E0,0E0,0E0,2.0584106E-1,0E0,0E0,4.5382188E3,6.913196E1,4.542427E2,1.7076685E2,1.9726562E-1,0E0,4.70166E1,0E0,3.4158325E0,0E0,0E0,0E0,0E0,0E0,0E0,0E0,0E0,0E0,0E0,0E0,0E0,0E0,0E0,0E0,0E0,0E0,0E0,0E0,0E0],"parents":[2147483647,0,0,1,1,2,2,3,3,4,4,5,5,6,6,7,7,8,8,9,9,10,10,11,11,13,13,14,14,16,16,17,17,19,19,22,22,23,23,25,25,26,26,27,27,28,28,30,30,32,32,35,35,38,38,39,39,40,40,41,41,42,42,44,44,46,46],"right_children":[2,4,6,8,10,12,14,16,18,20,22,24,-1,26,28,-1,30,32,-1,34,-1,-1,36,38,-1,40,42,44,46,-1,48,-1,50,-1,-1,52,-1,-1,54,56,58,60,62,-1,64,-1,66,-1,-1,-1,-1,-1,-1,-1,-1,-1,-1,-1,-1,-1,-1,-1,-1,-1,-1,-1,-1],"split_conditions":[2.36E2,2.24E2,3.5684E4,4.675E2,1.0785392E2,2.4E1,2.1180232E4,2.2E1,9.64E2,1.2888E4,4.663092E2,4.43E2,-1.5437444E-1,4.7636E4,1.7661E4,-1.5518817E-1,7.692308E4,1E0,-1.5430382E-1,4.224E3,-1.5426114E-1,-1.5638204E-1,9.6E1,8E1,-1.5451744E-1,4.1951E4,6.3358E4,1E0,6E0,-1.5429983E-1,6E0,-1.6852774E-1,9.35E2,-1.4529619E-1,2.8214183E-1,4.81E2,-1.5489672E-1,-1.5434313E-1,2E0,2.4897E4,2.4E1,3.2407E4,7.9124E4,-1.588663E-1,6.5852295E1,2.4623497E-1,1.7871428E2,1.5052247E-1,-1.5290008E-1,-1.2748568E-1,2.515373E-1,2.6265243E-1,3.2714307E-1,-1.9277753E-1,2.5296363E-1,-1.573174E-1,-6.670947E-2,2.5994867E-1,-1.5405586E-1,-1.5437621E-1,5.8397097E-3,-1.5067278E-1,-1.5436836E-1,4.400648E-1,2.7498063E-1,-1.0341343E-1,-1.635518E-1],"split_indices":[33,33,23,14,15,43,22,19,52,35,14,19,0,23,35,0,41,20,0,32,0,0,5,19,0,26,23,20,58,0,58,0,11,0,0,31,0,0,26,26,43,26,23,0,41,0,57,0,0,0,0,0,0,0,0,0,0,0,0,0,0,0,0,0,0,0,0],"split_type":[0,0,0,0,0,0,0,0,0,0,0,0,0,0,0,0,0,0,0,0,0,0,0,0,0,0,0,0,0,0,0,0,0,0,0,0,0,0,0,0,0,0,0,0,0,0,0,0,0,0,0,0,0,0,0,0,0,0,0,0,0,0,0,0,0,0,0],"sum_hessian":[7.8301006E5,4.0594856E5,3.7706153E5,4.034956E5,2.452982E3,2.554261E5,1.2163543E5,3.6602372E5,3.747187E4,2.173161E3,2.798211E2,2.4458667E5,1.0839412E4,1.1903203E5,2.603393E3,4.7102406E4,3.189213E5,3.322343E2,3.7139637E4,3.081376E2,1.8650232E3,1.1517036E2,1.6465076E2,2.3541686E5,9.169813E3,6.2103584E3,1.1282167E5,1.1825594E3,1.4208336E3,3.03959E5,1.4962312E4,2.0678865E1,3.1155545E2,3.06162E2,1.9756001E0,1.2959651E2,3.5054245E1,5.9767944E3,2.2944006E5,5.1219995E3,1.0883588E3,4.4356416E3,1.0838603E5,1.4529745E2,1.037262E3,8.432396E0,1.4124011E3,8.344818E0,1.4953967E4,4.625927E0,3.0692953E2,3.8000824E1,9.159568E1,2.0737856E3,2.2736628E5,4.194453E3,9.2754675E2,7.366624E2,3.516963E2,3.722259E3,7.133826E2,3.1385164E3,1.05247516E5,1.9447575E2,8.4278625E2,9.7952286E1,1.3144489E3],"tree_param":{"num_deleted":"0","num_feature":"70","num_nodes":"67","size_leaf_vector":"1"}},{"base_weights":[-5.134328E-1,-5.148984E-1,7.25577E-1,-5.163991E-1,-1.5437818E-1,8.000407E-1,-1.5108156E-1,-1.5535863E-1,-1.5430704E-1,-1.2241375E-1,8.076253E-1,6.988069E-1,8.7474877E-1,8.0350006E-1,5.3775156E-1,-1.270427E-1,8.8559E-1,3.7073082E-1,2.105203E-1,-1.2815501E-1,1.6773537E-1,2.7763346E-1,2.3024768E-1],"categories":[],"categories_nodes":[],"categories_segments":[],"categories_sizes":[],"default_left":[0,0,0,0,0,0,0,0,0,0,0,0,0,0,0,0,0,0,0,0,0,0,0],"id":37,"left_children":[1,3,5,7,-1,9,-1,-1,-1,-1,11,13,15,17,19,-1,21,-1,-1,-1,-1,-1,-1],"loss_changes":[1.0520781E3,1.5625E-2,6.30719E1,2.5390625E-2,0E0,6.248352E0,0E0,0E0,0E0,0E0,4.080017E0,3.7833176E0,5.9100037E0,5.708893E0,2.3317642E0,0E0,1.1269226E0,0E0,0E0,0E0,0E0,0E0,0E0],"parents":[2147483647,0,0,1,1,2,2,3,3,5,5,10,10,11,11,12,12,13,13,14,14,16,16],"right_children":[2,4,6,8,-1,10,-1,-1,-1,-1,12,14,16,18,20,-1,22,-1,-1,-1,-1,-1,-1],"split_conditions":[1.89E2,8E1,1.974E3,4.43E2,-1.5437818E-1,4.20173E5,-1.5108156E-1,-1.5535863E-1,-1.5430704E-1,-1.2241375E-1,9.34E2,1.7940756E4,5.363866E7,1.1514105E3,3.686353E7,-1.270427E-1,1E0,3.7073082E-1,2.105203E-1,-1.2815501E-1,1.6773537E-1,2.7763346E-1,2.3024768E-1],"split_indices":[29,23,25,19,0,24,0,0,0,0,25,27,23,28,23,0,26,0,0,0,0,0,0],"split_type":[0,0,0,0,0,0,0,0,0,0,0,0,0,0,0,0,0,0,0,0,0,0,0],"sum_hessian":[5.791574E5,5.784737E5,6.836857E2,9.7299016E4,4.8117466E5,6.44963E2,3.8722675E1,5.6542312E4,4.0756703E4,3.6944938E0,6.4126855E2,2.4900331E2,3.9226523E2,1.484895E2,1.0051381E2,2.9334023E0,3.8933182E2,2.6172705E1,1.22316795E2,1.7659819E0,9.8747826E1,2.8598373E2,1.0334808E2],"tree_param":{"num_deleted":"0","num_feature":"70","num_nodes":"23","size_leaf_vector":"1"}},{"base_weights":[-1.7302254E-1,-4.671023E-1,2.8321096E-1,-4.9347156E-1,7.093766E-1,6.707856E-1,-5.144359E-1,-5.050546E-1,-1.3714471E-1,-1.5426113E-1,8.7305063E-1,8.128942E-1,-3.5802716E-1,-1.5434285E-1,1.738324E-1,-5.093475E-1,2.838359E-1,8.7494093E-1,-1.5431455E-1,8.750272E-1,-1.4310879E-1,8.483426E-1,-1.5431839E-1,-2.5418425E-1,-1.5431908E-1,-1.3379839E-1,5.096367E-1,-5.104102E-1,8.912743E-1,6.680914E-1,-1.5417485E-1,2.6255053E-1,6.2426634E-2,2.625322E-1,7.2038144E-2,8.6593115E-1,-5.136428E-1,-4.7646138E-1,5.894838E-1,-1.540076E-1,-7.6749265E-2,1.2821703E-1,3.9171222E-1,2.179011E-1,-2.631279E-1,2.6183644E-1,-1.6139753E-1,-3.974372E-2,-1.5474615E-1,3.6246043E-2,-1.5064077E-1,-1.5525527E-1,2.7006355E-1],"categories":[],"categories_nodes":[],"categories_segments":[],"categories_sizes":[],"default_left":[0,0,0,0,0,0,0,0,0,0,0,0,0,0,0,0,0,0,0,0,0,0,0,0,0,0,0,0,0,0,0,0,0,0,0,0,0,0,0,0,0,0,0,0,0,0,0,0,0,0,0,0,0],"id":38,"left_children":[1,3,5,7,9,11,13,15,17,-1,19,21,23,-1,25,27,29,31,-1,33,-1,35,-1,37,-1,-1,-1,39,41,43,-1,-1,-1,-1,-1,45,47,49,51,-1,-1,-1,-1,-1,-1,-1,-1,-1,-1,-1,-1,-1,-1],"loss_changes":[9.935219E4,1.3968922E4,8.972545E4,1.8175938E3,1.9773618E3,2.8557578E4,2.7148438E0,1.4446484E3,5.294622E3,0E0,2.3652344E1,8.0752188E3,3.8481128E2,0E0,6.7042627E0,6.318906E2,7.081878E2,3.8891602E-1,0E0,2.319336E-1,0E0,4.00475E3,0E0,2.672158E3,0E0,0E0,0E0,3.180547E2,6.1344437E1,1.4093817E2,0E0,0E0,0E0,0E0,0E0,1.5890938E3,1.7010498E0,1.7299829E2,1.02259033E3,0E0,0E0,0E0,0E0,0E0,0E0,0E0,0E0,0E0,0E0,0E0,0E0,0E0,0E0],"parents":[2147483647,0,0,1,1,2,2,3,3,4,4,5,5,6,6,7,7,8,8,10,10,11,11,12,12,14,14,15,15,16,16,17,17,19,19,21,21,23,23,27,27,28,28,29,29,35,35,36,36,37,37,38,38],"right_children":[2,4,6,8,10,12,14,16,18,-1,20,22,24,-1,26,28,30,32,-1,34,-1,36,-1,38,-1,-1,-1,40,42,44,-1,-1,-1,-1,-1,46,48,50,52,-1,-1,-1,-1,-1,-1,-1,-1,-1,-1,-1,-1,-1,-1],"split_conditions":[9.69088E5,3.0984628E5,4E0,4.82E2,4.0745645E0,4.603596E7,5.9101654E2,4.23991E5,2.42E2,-1.5426113E-1,8.727333E3,4.43E2,4.43E2,-1.5434285E-1,1.452E3,7.658357E6,1E0,6.809E3,-1.5431455E-1,1.119E3,-1.4310879E-1,8.1019025E5,-1.5431839E-1,5.633765E7,-1.5431908E-1,-1.3379839E-1,5.096367E-1,9.8146E4,1E0,2.4E1,-1.5417485E-1,2.6255053E-1,6.2426634E-2,2.625322E-1,7.2038144E-2,2.4E1,1.0217037E-1,5.3286856E7,1E0,-1.540076E-1,-7.6749265E-2,1.2821703E-1,3.9171222E-1,2.179011E-1,-2.631279E-1,2.6183644E-1,-1.6139753E-1,-3.974372E-2,-1.5474615E-1,3.6246043E-2,-1.5064077E-1,-1.5525527E-1,2.7006355E-1],"split_indices":[24,27,66,14,15,23,41,25,12,0,32,19,19,0,25,23,52,32,0,8,0,27,0,45,0,0,0,26,26,43,0,0,0,0,0,43,28,35,0,0,0,0,0,0,0,0,0,0,0,0,0,0,0],"split_type":[0,0,0,0,0,0,0,0,0,0,0,0,0,0,0,0,0,0,0,0,0,0,0,0,0,0,0,0,0,0,0,0,0,0,0,0,0,0,0,0,0,0,0,0,0,0,0,0,0,0,0,0,0],"sum_hessian":[7.404981E5,4.502653E5,2.9023278E5,4.40395E5,9.870317E3,1.9532502E5,9.490778E4,4.2652953E5,1.3865484E4,1.1642885E3,